digraph Tree {
node [shape=box] ;
0 [label="alcohol <= 10.625\ngini = 0.6763\nsamples = 3428\nvalue = [16, 124, 1019, 1543, 594, 127, 5]"] ;
1 [label="volatile acidity <= 0.2375\ngini = 0.6197\nsamples = 2008\nvalue = [9, 91, 860, 873, 151, 23, 1]"] ;
0 -> 1 [labeldistance=2.5, labelangle=45, headlabel="True"] ;
2 [label="alcohol <= 8.75\ngini = 0.5947\nsamples = 719\nvalue = [3, 15, 164, 414, 103, 20, 0]"] ;
1 -> 2 ;
3 [label="fixed acidity <= 7.3\ngini = 0.6618\nsamples = 31\nvalue = [1, 0, 7, 7, 15, 1, 0]"] ;
2 -> 3 ;
4 [label="pH <= 3.095\ngini = 0.6133\nsamples = 15\nvalue = [1, 0, 6, 7, 1, 0, 0]"] ;
3 -> 4 ;
5 [label="gini = 0.0\nsamples = 6\nvalue = [0, 0, 0, 6, 0, 0, 0]"] ;
4 -> 5 ;
6 [label="pH <= 3.405\ngini = 0.5185\nsamples = 9\nvalue = [1, 0, 6, 1, 1, 0, 0]"] ;
4 -> 6 ;
7 [label="citric acid <= 0.41\ngini = 0.4062\nsamples = 8\nvalue = [0, 0, 6, 1, 1, 0, 0]"] ;
6 -> 7 ;
8 [label="free sulfur dioxide <= 17.5\ngini = 0.2449\nsamples = 7\nvalue = [0, 0, 6, 0, 1, 0, 0]"] ;
7 -> 8 ;
9 [label="gini = 0.0\nsamples = 1\nvalue = [0, 0, 0, 0, 1, 0, 0]"] ;
8 -> 9 ;
10 [label="gini = 0.0\nsamples = 6\nvalue = [0, 0, 6, 0, 0, 0, 0]"] ;
8 -> 10 ;
11 [label="gini = 0.0\nsamples = 1\nvalue = [0, 0, 0, 1, 0, 0, 0]"] ;
7 -> 11 ;
12 [label="gini = 0.0\nsamples = 1\nvalue = [1, 0, 0, 0, 0, 0, 0]"] ;
6 -> 12 ;
13 [label="citric acid <= 0.44\ngini = 0.2266\nsamples = 16\nvalue = [0, 0, 1, 0, 14, 1, 0]"] ;
3 -> 13 ;
14 [label="gini = 0.0\nsamples = 14\nvalue = [0, 0, 0, 0, 14, 0, 0]"] ;
13 -> 14 ;
15 [label="volatile acidity <= 0.195\ngini = 0.5\nsamples = 2\nvalue = [0, 0, 1, 0, 0, 1, 0]"] ;
13 -> 15 ;
16 [label="gini = 0.0\nsamples = 1\nvalue = [0, 0, 0, 0, 0, 1, 0]"] ;
15 -> 16 ;
17 [label="gini = 0.0\nsamples = 1\nvalue = [0, 0, 1, 0, 0, 0, 0]"] ;
15 -> 17 ;
18 [label="sulphates <= 0.485\ngini = 0.5804\nsamples = 688\nvalue = [2, 15, 157, 407, 88, 19, 0]"] ;
2 -> 18 ;
19 [label="pH <= 2.875\ngini = 0.6212\nsamples = 376\nvalue = [1, 8, 107, 200, 41, 19, 0]"] ;
18 -> 19 ;
20 [label="gini = 0.0\nsamples = 7\nvalue = [0, 0, 7, 0, 0, 0, 0]"] ;
19 -> 20 ;
21 [label="alcohol <= 8.95\ngini = 0.6173\nsamples = 369\nvalue = [1, 8, 100, 200, 41, 19, 0]"] ;
19 -> 21 ;
22 [label="total sulfur dioxide <= 131.5\ngini = 0.7017\nsamples = 47\nvalue = [0, 0, 15, 16, 3, 13, 0]"] ;
21 -> 22 ;
23 [label="pH <= 3.015\ngini = 0.1327\nsamples = 14\nvalue = [0, 0, 1, 13, 0, 0, 0]"] ;
22 -> 23 ;
24 [label="gini = 0.0\nsamples = 1\nvalue = [0, 0, 1, 0, 0, 0, 0]"] ;
23 -> 24 ;
25 [label="gini = 0.0\nsamples = 13\nvalue = [0, 0, 0, 13, 0, 0, 0]"] ;
23 -> 25 ;
26 [label="total sulfur dioxide <= 151.5\ngini = 0.6483\nsamples = 33\nvalue = [0, 0, 14, 3, 3, 13, 0]"] ;
22 -> 26 ;
27 [label="sulphates <= 0.365\ngini = 0.1327\nsamples = 14\nvalue = [0, 0, 13, 1, 0, 0, 0]"] ;
26 -> 27 ;
28 [label="gini = 0.0\nsamples = 1\nvalue = [0, 0, 0, 1, 0, 0, 0]"] ;
27 -> 28 ;
29 [label="gini = 0.0\nsamples = 13\nvalue = [0, 0, 13, 0, 0, 0, 0]"] ;
27 -> 29 ;
30 [label="citric acid <= 0.31\ngini = 0.4931\nsamples = 19\nvalue = [0, 0, 1, 2, 3, 13, 0]"] ;
26 -> 30 ;
31 [label="free sulfur dioxide <= 58.0\ngini = 0.1327\nsamples = 14\nvalue = [0, 0, 1, 0, 0, 13, 0]"] ;
30 -> 31 ;
32 [label="gini = 0.0\nsamples = 13\nvalue = [0, 0, 0, 0, 0, 13, 0]"] ;
31 -> 32 ;
33 [label="gini = 0.0\nsamples = 1\nvalue = [0, 0, 1, 0, 0, 0, 0]"] ;
31 -> 33 ;
34 [label="residual sugar <= 13.95\ngini = 0.48\nsamples = 5\nvalue = [0, 0, 0, 2, 3, 0, 0]"] ;
30 -> 34 ;
35 [label="gini = 0.0\nsamples = 3\nvalue = [0, 0, 0, 0, 3, 0, 0]"] ;
34 -> 35 ;
36 [label="gini = 0.0\nsamples = 2\nvalue = [0, 0, 0, 2, 0, 0, 0]"] ;
34 -> 36 ;
37 [label="residual sugar <= 5.5\ngini = 0.5889\nsamples = 322\nvalue = [1, 8, 85, 184, 38, 6, 0]"] ;
21 -> 37 ;
38 [label="free sulfur dioxide <= 5.5\ngini = 0.6178\nsamples = 156\nvalue = [1, 4, 57, 76, 16, 2, 0]"] ;
37 -> 38 ;
39 [label="sulphates <= 0.325\ngini = 0.4444\nsamples = 3\nvalue = [1, 2, 0, 0, 0, 0, 0]"] ;
38 -> 39 ;
40 [label="gini = 0.0\nsamples = 1\nvalue = [1, 0, 0, 0, 0, 0, 0]"] ;
39 -> 40 ;
41 [label="gini = 0.0\nsamples = 2\nvalue = [0, 2, 0, 0, 0, 0, 0]"] ;
39 -> 41 ;
42 [label="residual sugar <= 0.95\ngini = 0.6032\nsamples = 153\nvalue = [0, 2, 57, 76, 16, 2, 0]"] ;
38 -> 42 ;
43 [label="gini = 0.0\nsamples = 6\nvalue = [0, 0, 0, 6, 0, 0, 0]"] ;
42 -> 43 ;
44 [label="alcohol <= 9.15\ngini = 0.6107\nsamples = 147\nvalue = [0, 2, 57, 70, 16, 2, 0]"] ;
42 -> 44 ;
45 [label="residual sugar <= 4.7\ngini = 0.4062\nsamples = 8\nvalue = [0, 1, 6, 1, 0, 0, 0]"] ;
44 -> 45 ;
46 [label="residual sugar <= 1.3\ngini = 0.2449\nsamples = 7\nvalue = [0, 0, 6, 1, 0, 0, 0]"] ;
45 -> 46 ;
47 [label="volatile acidity <= 0.21\ngini = 0.5\nsamples = 2\nvalue = [0, 0, 1, 1, 0, 0, 0]"] ;
46 -> 47 ;
48 [label="gini = 0.0\nsamples = 1\nvalue = [0, 0, 0, 1, 0, 0, 0]"] ;
47 -> 48 ;
49 [label="gini = 0.0\nsamples = 1\nvalue = [0, 0, 1, 0, 0, 0, 0]"] ;
47 -> 49 ;
50 [label="gini = 0.0\nsamples = 5\nvalue = [0, 0, 5, 0, 0, 0, 0]"] ;
46 -> 50 ;
51 [label="gini = 0.0\nsamples = 1\nvalue = [0, 1, 0, 0, 0, 0, 0]"] ;
45 -> 51 ;
52 [label="pH <= 3.365\ngini = 0.6055\nsamples = 139\nvalue = [0, 1, 51, 69, 16, 2, 0]"] ;
44 -> 52 ;
53 [label="pH <= 3.285\ngini = 0.6078\nsamples = 117\nvalue = [0, 1, 48, 54, 12, 2, 0]"] ;
52 -> 53 ;
54 [label="total sulfur dioxide <= 168.5\ngini = 0.5711\nsamples = 92\nvalue = [0, 1, 36, 48, 5, 2, 0]"] ;
53 -> 54 ;
55 [label="total sulfur dioxide <= 156.0\ngini = 0.5664\nsamples = 88\nvalue = [0, 1, 32, 48, 5, 2, 0]"] ;
54 -> 55 ;
56 [label="total sulfur dioxide <= 127.0\ngini = 0.5853\nsamples = 80\nvalue = [0, 1, 32, 40, 5, 2, 0]"] ;
55 -> 56 ;
57 [label="volatile acidity <= 0.155\ngini = 0.5772\nsamples = 55\nvalue = [0, 0, 17, 31, 5, 2, 0]"] ;
56 -> 57 ;
58 [label="residual sugar <= 2.0\ngini = 0.56\nsamples = 10\nvalue = [0, 0, 6, 2, 0, 2, 0]"] ;
57 -> 58 ;
59 [label="gini = 0.0\nsamples = 6\nvalue = [0, 0, 6, 0, 0, 0, 0]"] ;
58 -> 59 ;
60 [label="alcohol <= 10.2\ngini = 0.5\nsamples = 4\nvalue = [0, 0, 0, 2, 0, 2, 0]"] ;
58 -> 60 ;
61 [label="gini = 0.0\nsamples = 2\nvalue = [0, 0, 0, 2, 0, 0, 0]"] ;
60 -> 61 ;
62 [label="gini = 0.0\nsamples = 2\nvalue = [0, 0, 0, 0, 0, 2, 0]"] ;
60 -> 62 ;
63 [label="pH <= 3.155\ngini = 0.5126\nsamples = 45\nvalue = [0, 0, 11, 29, 5, 0, 0]"] ;
57 -> 63 ;
64 [label="pH <= 3.145\ngini = 0.5934\nsamples = 34\nvalue = [0, 0, 11, 18, 5, 0, 0]"] ;
63 -> 64 ;
65 [label="residual sugar <= 1.55\ngini = 0.5328\nsamples = 31\nvalue = [0, 0, 11, 18, 2, 0, 0]"] ;
64 -> 65 ;
66 [label="density <= 0.9927\ngini = 0.4567\nsamples = 17\nvalue = [0, 0, 3, 12, 2, 0, 0]"] ;
65 -> 66 ;
67 [label="gini = 0.6531\nsamples = 7\nvalue = [0, 0, 2, 3, 2, 0, 0]"] ;
66 -> 67 ;
68 [label="gini = 0.18\nsamples = 10\nvalue = [0, 0, 1, 9, 0, 0, 0]"] ;
66 -> 68 ;
69 [label="citric acid <= 0.345\ngini = 0.4898\nsamples = 14\nvalue = [0, 0, 8, 6, 0, 0, 0]"] ;
65 -> 69 ;
70 [label="gini = 0.48\nsamples = 10\nvalue = [0, 0, 4, 6, 0, 0, 0]"] ;
69 -> 70 ;
71 [label="gini = 0.0\nsamples = 4\nvalue = [0, 0, 4, 0, 0, 0, 0]"] ;
69 -> 71 ;
72 [label="gini = 0.0\nsamples = 3\nvalue = [0, 0, 0, 0, 3, 0, 0]"] ;
64 -> 72 ;
73 [label="gini = 0.0\nsamples = 11\nvalue = [0, 0, 0, 11, 0, 0, 0]"] ;
63 -> 73 ;
74 [label="density <= 0.9922\ngini = 0.5088\nsamples = 25\nvalue = [0, 1, 15, 9, 0, 0, 0]"] ;
56 -> 74 ;
75 [label="gini = 0.0\nsamples = 6\nvalue = [0, 0, 6, 0, 0, 0, 0]"] ;
74 -> 75 ;
76 [label="volatile acidity <= 0.205\ngini = 0.5485\nsamples = 19\nvalue = [0, 1, 9, 9, 0, 0, 0]"] ;
74 -> 76 ;
77 [label="volatile acidity <= 0.155\ngini = 0.426\nsamples = 13\nvalue = [0, 0, 9, 4, 0, 0, 0]"] ;
76 -> 77 ;
78 [label="gini = 0.0\nsamples = 3\nvalue = [0, 0, 0, 3, 0, 0, 0]"] ;
77 -> 78 ;
79 [label="chlorides <= 0.042\ngini = 0.18\nsamples = 10\nvalue = [0, 0, 9, 1, 0, 0, 0]"] ;
77 -> 79 ;
80 [label="volatile acidity <= 0.18\ngini = 0.5\nsamples = 2\nvalue = [0, 0, 1, 1, 0, 0, 0]"] ;
79 -> 80 ;
81 [label="gini = 0.0\nsamples = 1\nvalue = [0, 0, 1, 0, 0, 0, 0]"] ;
80 -> 81 ;
82 [label="gini = 0.0\nsamples = 1\nvalue = [0, 0, 0, 1, 0, 0, 0]"] ;
80 -> 82 ;
83 [label="gini = 0.0\nsamples = 8\nvalue = [0, 0, 8, 0, 0, 0, 0]"] ;
79 -> 83 ;
84 [label="fixed acidity <= 8.15\ngini = 0.2778\nsamples = 6\nvalue = [0, 1, 0, 5, 0, 0, 0]"] ;
76 -> 84 ;
85 [label="gini = 0.0\nsamples = 5\nvalue = [0, 0, 0, 5, 0, 0, 0]"] ;
84 -> 85 ;
86 [label="gini = 0.0\nsamples = 1\nvalue = [0, 1, 0, 0, 0, 0, 0]"] ;
84 -> 86 ;
87 [label="gini = 0.0\nsamples = 8\nvalue = [0, 0, 0, 8, 0, 0, 0]"] ;
55 -> 87 ;
88 [label="gini = 0.0\nsamples = 4\nvalue = [0, 0, 4, 0, 0, 0, 0]"] ;
54 -> 88 ;
89 [label="sulphates <= 0.385\ngini = 0.6336\nsamples = 25\nvalue = [0, 0, 12, 6, 7, 0, 0]"] ;
53 -> 89 ;
90 [label="total sulfur dioxide <= 114.5\ngini = 0.32\nsamples = 5\nvalue = [0, 0, 0, 1, 4, 0, 0]"] ;
89 -> 90 ;
91 [label="gini = 0.0\nsamples = 1\nvalue = [0, 0, 0, 1, 0, 0, 0]"] ;
90 -> 91 ;
92 [label="gini = 0.0\nsamples = 4\nvalue = [0, 0, 0, 0, 4, 0, 0]"] ;
90 -> 92 ;
93 [label="volatile acidity <= 0.155\ngini = 0.555\nsamples = 20\nvalue = [0, 0, 12, 5, 3, 0, 0]"] ;
89 -> 93 ;
94 [label="residual sugar <= 5.35\ngini = 0.4688\nsamples = 8\nvalue = [0, 0, 3, 5, 0, 0, 0]"] ;
93 -> 94 ;
95 [label="pH <= 3.355\ngini = 0.4082\nsamples = 7\nvalue = [0, 0, 2, 5, 0, 0, 0]"] ;
94 -> 95 ;
96 [label="gini = 0.0\nsamples = 4\nvalue = [0, 0, 0, 4, 0, 0, 0]"] ;
95 -> 96 ;
97 [label="sulphates <= 0.465\ngini = 0.4444\nsamples = 3\nvalue = [0, 0, 2, 1, 0, 0, 0]"] ;
95 -> 97 ;
98 [label="gini = 0.0\nsamples = 2\nvalue = [0, 0, 2, 0, 0, 0, 0]"] ;
97 -> 98 ;
99 [label="gini = 0.0\nsamples = 1\nvalue = [0, 0, 0, 1, 0, 0, 0]"] ;
97 -> 99 ;
100 [label="gini = 0.0\nsamples = 1\nvalue = [0, 0, 1, 0, 0, 0, 0]"] ;
94 -> 100 ;
101 [label="free sulfur dioxide <= 33.0\ngini = 0.375\nsamples = 12\nvalue = [0, 0, 9, 0, 3, 0, 0]"] ;
93 -> 101 ;
102 [label="gini = 0.0\nsamples = 6\nvalue = [0, 0, 6, 0, 0, 0, 0]"] ;
101 -> 102 ;
103 [label="residual sugar <= 1.65\ngini = 0.5\nsamples = 6\nvalue = [0, 0, 3, 0, 3, 0, 0]"] ;
101 -> 103 ;
104 [label="gini = 0.0\nsamples = 2\nvalue = [0, 0, 0, 0, 2, 0, 0]"] ;
103 -> 104 ;
105 [label="pH <= 3.355\ngini = 0.375\nsamples = 4\nvalue = [0, 0, 3, 0, 1, 0, 0]"] ;
103 -> 105 ;
106 [label="gini = 0.0\nsamples = 3\nvalue = [0, 0, 3, 0, 0, 0, 0]"] ;
105 -> 106 ;
107 [label="gini = 0.0\nsamples = 1\nvalue = [0, 0, 0, 0, 1, 0, 0]"] ;
105 -> 107 ;
108 [label="pH <= 3.575\ngini = 0.4835\nsamples = 22\nvalue = [0, 0, 3, 15, 4, 0, 0]"] ;
52 -> 108 ;
109 [label="residual sugar <= 1.95\ngini = 0.395\nsamples = 20\nvalue = [0, 0, 1, 15, 4, 0, 0]"] ;
108 -> 109 ;
110 [label="chlorides <= 0.028\ngini = 0.1528\nsamples = 12\nvalue = [0, 0, 1, 11, 0, 0, 0]"] ;
109 -> 110 ;
111 [label="gini = 0.0\nsamples = 1\nvalue = [0, 0, 1, 0, 0, 0, 0]"] ;
110 -> 111 ;
112 [label="gini = 0.0\nsamples = 11\nvalue = [0, 0, 0, 11, 0, 0, 0]"] ;
110 -> 112 ;
113 [label="fixed acidity <= 6.75\ngini = 0.5\nsamples = 8\nvalue = [0, 0, 0, 4, 4, 0, 0]"] ;
109 -> 113 ;
114 [label="total sulfur dioxide <= 109.0\ngini = 0.32\nsamples = 5\nvalue = [0, 0, 0, 4, 1, 0, 0]"] ;
113 -> 114 ;
115 [label="gini = 0.0\nsamples = 1\nvalue = [0, 0, 0, 0, 1, 0, 0]"] ;
114 -> 115 ;
116 [label="gini = 0.0\nsamples = 4\nvalue = [0, 0, 0, 4, 0, 0, 0]"] ;
114 -> 116 ;
117 [label="gini = 0.0\nsamples = 3\nvalue = [0, 0, 0, 0, 3, 0, 0]"] ;
113 -> 117 ;
118 [label="gini = 0.0\nsamples = 2\nvalue = [0, 0, 2, 0, 0, 0, 0]"] ;
108 -> 118 ;
119 [label="pH <= 2.985\ngini = 0.5295\nsamples = 166\nvalue = [0, 4, 28, 108, 22, 4, 0]"] ;
37 -> 119 ;
120 [label="pH <= 2.92\ngini = 0.6661\nsamples = 34\nvalue = [0, 2, 6, 15, 11, 0, 0]"] ;
119 -> 120 ;
121 [label="citric acid <= 0.43\ngini = 0.2311\nsamples = 15\nvalue = [0, 2, 0, 13, 0, 0, 0]"] ;
120 -> 121 ;
122 [label="gini = 0.0\nsamples = 13\nvalue = [0, 0, 0, 13, 0, 0, 0]"] ;
121 -> 122 ;
123 [label="gini = 0.0\nsamples = 2\nvalue = [0, 2, 0, 0, 0, 0, 0]"] ;
121 -> 123 ;
124 [label="alcohol <= 9.1\ngini = 0.554\nsamples = 19\nvalue = [0, 0, 6, 2, 11, 0, 0]"] ;
120 -> 124 ;
125 [label="fixed acidity <= 7.3\ngini = 0.1653\nsamples = 11\nvalue = [0, 0, 1, 0, 10, 0, 0]"] ;
124 -> 125 ;
126 [label="gini = 0.0\nsamples = 10\nvalue = [0, 0, 0, 0, 10, 0, 0]"] ;
125 -> 126 ;
127 [label="gini = 0.0\nsamples = 1\nvalue = [0, 0, 1, 0, 0, 0, 0]"] ;
125 -> 127 ;
128 [label="volatile acidity <= 0.205\ngini = 0.5312\nsamples = 8\nvalue = [0, 0, 5, 2, 1, 0, 0]"] ;
124 -> 128 ;
129 [label="free sulfur dioxide <= 67.5\ngini = 0.625\nsamples = 4\nvalue = [0, 0, 1, 2, 1, 0, 0]"] ;
128 -> 129 ;
130 [label="gini = 0.0\nsamples = 2\nvalue = [0, 0, 0, 2, 0, 0, 0]"] ;
129 -> 130 ;
131 [label="fixed acidity <= 6.05\ngini = 0.5\nsamples = 2\nvalue = [0, 0, 1, 0, 1, 0, 0]"] ;
129 -> 131 ;
132 [label="gini = 0.0\nsamples = 1\nvalue = [0, 0, 0, 0, 1, 0, 0]"] ;
131 -> 132 ;
133 [label="gini = 0.0\nsamples = 1\nvalue = [0, 0, 1, 0, 0, 0, 0]"] ;
131 -> 133 ;
134 [label="gini = 0.0\nsamples = 4\nvalue = [0, 0, 4, 0, 0, 0, 0]"] ;
128 -> 134 ;
135 [label="chlorides <= 0.12\ngini = 0.4677\nsamples = 132\nvalue = [0, 2, 22, 93, 11, 4, 0]"] ;
119 -> 135 ;
136 [label="pH <= 3.615\ngini = 0.452\nsamples = 130\nvalue = [0, 2, 22, 93, 11, 2, 0]"] ;
135 -> 136 ;
137 [label="total sulfur dioxide <= 124.5\ngini = 0.4398\nsamples = 128\nvalue = [0, 2, 20, 93, 11, 2, 0]"] ;
136 -> 137 ;
138 [label="pH <= 3.05\ngini = 0.2547\nsamples = 35\nvalue = [0, 0, 0, 30, 3, 2, 0]"] ;
137 -> 138 ;
139 [label="gini = 0.0\nsamples = 1\nvalue = [0, 0, 0, 0, 1, 0, 0]"] ;
138 -> 139 ;
140 [label="chlorides <= 0.04\ngini = 0.2145\nsamples = 34\nvalue = [0, 0, 0, 30, 2, 2, 0]"] ;
138 -> 140 ;
141 [label="density <= 0.9954\ngini = 0.48\nsamples = 5\nvalue = [0, 0, 0, 3, 0, 2, 0]"] ;
140 -> 141 ;
142 [label="gini = 0.0\nsamples = 3\nvalue = [0, 0, 0, 3, 0, 0, 0]"] ;
141 -> 142 ;
143 [label="gini = 0.0\nsamples = 2\nvalue = [0, 0, 0, 0, 0, 2, 0]"] ;
141 -> 143 ;
144 [label="sulphates <= 0.465\ngini = 0.1284\nsamples = 29\nvalue = [0, 0, 0, 27, 2, 0, 0]"] ;
140 -> 144 ;
145 [label="pH <= 3.39\ngini = 0.074\nsamples = 26\nvalue = [0, 0, 0, 25, 1, 0, 0]"] ;
144 -> 145 ;
146 [label="gini = 0.0\nsamples = 23\nvalue = [0, 0, 0, 23, 0, 0, 0]"] ;
145 -> 146 ;
147 [label="free sulfur dioxide <= 37.5\ngini = 0.4444\nsamples = 3\nvalue = [0, 0, 0, 2, 1, 0, 0]"] ;
145 -> 147 ;
148 [label="gini = 0.0\nsamples = 2\nvalue = [0, 0, 0, 2, 0, 0, 0]"] ;
147 -> 148 ;
149 [label="gini = 0.0\nsamples = 1\nvalue = [0, 0, 0, 0, 1, 0, 0]"] ;
147 -> 149 ;
150 [label="total sulfur dioxide <= 97.0\ngini = 0.4444\nsamples = 3\nvalue = [0, 0, 0, 2, 1, 0, 0]"] ;
144 -> 150 ;
151 [label="gini = 0.0\nsamples = 1\nvalue = [0, 0, 0, 0, 1, 0, 0]"] ;
150 -> 151 ;
152 [label="gini = 0.0\nsamples = 2\nvalue = [0, 0, 0, 2, 0, 0, 0]"] ;
150 -> 152 ;
153 [label="total sulfur dioxide <= 134.5\ngini = 0.487\nsamples = 93\nvalue = [0, 2, 20, 63, 8, 0, 0]"] ;
137 -> 153 ;
154 [label="total sulfur dioxide <= 127.5\ngini = 0.6627\nsamples = 13\nvalue = [0, 0, 4, 4, 5, 0, 0]"] ;
153 -> 154 ;
155 [label="gini = 0.0\nsamples = 3\nvalue = [0, 0, 3, 0, 0, 0, 0]"] ;
154 -> 155 ;
156 [label="alcohol <= 10.45\ngini = 0.58\nsamples = 10\nvalue = [0, 0, 1, 4, 5, 0, 0]"] ;
154 -> 156 ;
157 [label="alcohol <= 9.85\ngini = 0.5714\nsamples = 7\nvalue = [0, 0, 1, 4, 2, 0, 0]"] ;
156 -> 157 ;
158 [label="residual sugar <= 10.8\ngini = 0.4444\nsamples = 3\nvalue = [0, 0, 1, 0, 2, 0, 0]"] ;
157 -> 158 ;
159 [label="gini = 0.0\nsamples = 1\nvalue = [0, 0, 1, 0, 0, 0, 0]"] ;
158 -> 159 ;
160 [label="gini = 0.0\nsamples = 2\nvalue = [0, 0, 0, 0, 2, 0, 0]"] ;
158 -> 160 ;
161 [label="gini = 0.0\nsamples = 4\nvalue = [0, 0, 0, 4, 0, 0, 0]"] ;
157 -> 161 ;
162 [label="gini = 0.0\nsamples = 3\nvalue = [0, 0, 0, 0, 3, 0, 0]"] ;
156 -> 162 ;
163 [label="free sulfur dioxide <= 32.5\ngini = 0.4141\nsamples = 80\nvalue = [0, 2, 16, 59, 3, 0, 0]"] ;
153 -> 163 ;
164 [label="sulphates <= 0.435\ngini = 0.5\nsamples = 4\nvalue = [0, 2, 0, 2, 0, 0, 0]"] ;
163 -> 164 ;
165 [label="gini = 0.0\nsamples = 2\nvalue = [0, 0, 0, 2, 0, 0, 0]"] ;
164 -> 165 ;
166 [label="gini = 0.0\nsamples = 2\nvalue = [0, 2, 0, 0, 0, 0, 0]"] ;
164 -> 166 ;
167 [label="residual sugar <= 10.25\ngini = 0.3916\nsamples = 76\nvalue = [0, 0, 16, 57, 3, 0, 0]"] ;
163 -> 167 ;
168 [label="citric acid <= 0.195\ngini = 0.2612\nsamples = 40\nvalue = [0, 0, 5, 34, 1, 0, 0]"] ;
167 -> 168 ;
169 [label="gini = 0.0\nsamples = 1\nvalue = [0, 0, 1, 0, 0, 0, 0]"] ;
168 -> 169 ;
170 [label="density <= 0.9941\ngini = 0.2288\nsamples = 39\nvalue = [0, 0, 4, 34, 1, 0, 0]"] ;
168 -> 170 ;
171 [label="gini = 0.0\nsamples = 1\nvalue = [0, 0, 1, 0, 0, 0, 0]"] ;
170 -> 171 ;
172 [label="pH <= 3.045\ngini = 0.1925\nsamples = 38\nvalue = [0, 0, 3, 34, 1, 0, 0]"] ;
170 -> 172 ;
173 [label="alcohol <= 10.35\ngini = 0.5\nsamples = 2\nvalue = [0, 0, 0, 1, 1, 0, 0]"] ;
172 -> 173 ;
174 [label="gini = 0.0\nsamples = 1\nvalue = [0, 0, 0, 0, 1, 0, 0]"] ;
173 -> 174 ;
175 [label="gini = 0.0\nsamples = 1\nvalue = [0, 0, 0, 1, 0, 0, 0]"] ;
173 -> 175 ;
176 [label="chlorides <= 0.0445\ngini = 0.1528\nsamples = 36\nvalue = [0, 0, 3, 33, 0, 0, 0]"] ;
172 -> 176 ;
177 [label="gini = 0.0\nsamples = 17\nvalue = [0, 0, 0, 17, 0, 0, 0]"] ;
176 -> 177 ;
178 [label="volatile acidity <= 0.135\ngini = 0.2659\nsamples = 19\nvalue = [0, 0, 3, 16, 0, 0, 0]"] ;
176 -> 178 ;
179 [label="gini = 0.0\nsamples = 1\nvalue = [0, 0, 1, 0, 0, 0, 0]"] ;
178 -> 179 ;
180 [label="pH <= 3.085\ngini = 0.1975\nsamples = 18\nvalue = [0, 0, 2, 16, 0, 0, 0]"] ;
178 -> 180 ;
181 [label="gini = 0.0\nsamples = 1\nvalue = [0, 0, 1, 0, 0, 0, 0]"] ;
180 -> 181 ;
182 [label="gini = 0.1107\nsamples = 17\nvalue = [0, 0, 1, 16, 0, 0, 0]"] ;
180 -> 182 ;
183 [label="sulphates <= 0.415\ngini = 0.4954\nsamples = 36\nvalue = [0, 0, 11, 23, 2, 0, 0]"] ;
167 -> 183 ;
184 [label="sulphates <= 0.385\ngini = 0.5\nsamples = 18\nvalue = [0, 0, 9, 9, 0, 0, 0]"] ;
183 -> 184 ;
185 [label="alcohol <= 9.65\ngini = 0.426\nsamples = 13\nvalue = [0, 0, 4, 9, 0, 0, 0]"] ;
184 -> 185 ;
186 [label="gini = 0.0\nsamples = 6\nvalue = [0, 0, 0, 6, 0, 0, 0]"] ;
185 -> 186 ;
187 [label="total sulfur dioxide <= 141.0\ngini = 0.4898\nsamples = 7\nvalue = [0, 0, 4, 3, 0, 0, 0]"] ;
185 -> 187 ;
188 [label="fixed acidity <= 6.25\ngini = 0.375\nsamples = 4\nvalue = [0, 0, 1, 3, 0, 0, 0]"] ;
187 -> 188 ;
189 [label="gini = 0.0\nsamples = 1\nvalue = [0, 0, 1, 0, 0, 0, 0]"] ;
188 -> 189 ;
190 [label="gini = 0.0\nsamples = 3\nvalue = [0, 0, 0, 3, 0, 0, 0]"] ;
188 -> 190 ;
191 [label="gini = 0.0\nsamples = 3\nvalue = [0, 0, 3, 0, 0, 0, 0]"] ;
187 -> 191 ;
192 [label="gini = 0.0\nsamples = 5\nvalue = [0, 0, 5, 0, 0, 0, 0]"] ;
184 -> 192 ;
193 [label="residual sugar <= 11.9\ngini = 0.3704\nsamples = 18\nvalue = [0, 0, 2, 14, 2, 0, 0]"] ;
183 -> 193 ;
194 [label="total sulfur dioxide <= 155.5\ngini = 0.64\nsamples = 5\nvalue = [0, 0, 1, 2, 2, 0, 0]"] ;
193 -> 194 ;
195 [label="alcohol <= 9.6\ngini = 0.4444\nsamples = 3\nvalue = [0, 0, 1, 2, 0, 0, 0]"] ;
194 -> 195 ;
196 [label="gini = 0.0\nsamples = 1\nvalue = [0, 0, 1, 0, 0, 0, 0]"] ;
195 -> 196 ;
197 [label="gini = 0.0\nsamples = 2\nvalue = [0, 0, 0, 2, 0, 0, 0]"] ;
195 -> 197 ;
198 [label="gini = 0.0\nsamples = 2\nvalue = [0, 0, 0, 0, 2, 0, 0]"] ;
194 -> 198 ;
199 [label="citric acid <= 0.27\ngini = 0.142\nsamples = 13\nvalue = [0, 0, 1, 12, 0, 0, 0]"] ;
193 -> 199 ;
200 [label="pH <= 3.235\ngini = 0.5\nsamples = 2\nvalue = [0, 0, 1, 1, 0, 0, 0]"] ;
199 -> 200 ;
201 [label="gini = 0.0\nsamples = 1\nvalue = [0, 0, 0, 1, 0, 0, 0]"] ;
200 -> 201 ;
202 [label="gini = 0.0\nsamples = 1\nvalue = [0, 0, 1, 0, 0, 0, 0]"] ;
200 -> 202 ;
203 [label="gini = 0.0\nsamples = 11\nvalue = [0, 0, 0, 11, 0, 0, 0]"] ;
199 -> 203 ;
204 [label="gini = 0.0\nsamples = 2\nvalue = [0, 0, 2, 0, 0, 0, 0]"] ;
136 -> 204 ;
205 [label="gini = 0.0\nsamples = 2\nvalue = [0, 0, 0, 0, 0, 2, 0]"] ;
135 -> 205 ;
206 [label="sulphates <= 0.845\ngini = 0.5109\nsamples = 312\nvalue = [1, 7, 50, 207, 47, 0, 0]"] ;
18 -> 206 ;
207 [label="free sulfur dioxide <= 19.5\ngini = 0.5019\nsamples = 308\nvalue = [1, 7, 50, 207, 43, 0, 0]"] ;
206 -> 207 ;
208 [label="fixed acidity <= 6.65\ngini = 0.6591\nsamples = 44\nvalue = [1, 3, 15, 20, 5, 0, 0]"] ;
207 -> 208 ;
209 [label="fixed acidity <= 5.55\ngini = 0.3704\nsamples = 18\nvalue = [0, 0, 2, 14, 2, 0, 0]"] ;
208 -> 209 ;
210 [label="sulphates <= 0.515\ngini = 0.4444\nsamples = 3\nvalue = [0, 0, 2, 0, 1, 0, 0]"] ;
209 -> 210 ;
211 [label="gini = 0.0\nsamples = 2\nvalue = [0, 0, 2, 0, 0, 0, 0]"] ;
210 -> 211 ;
212 [label="gini = 0.0\nsamples = 1\nvalue = [0, 0, 0, 0, 1, 0, 0]"] ;
210 -> 212 ;
213 [label="volatile acidity <= 0.1125\ngini = 0.1244\nsamples = 15\nvalue = [0, 0, 0, 14, 1, 0, 0]"] ;
209 -> 213 ;
214 [label="gini = 0.0\nsamples = 1\nvalue = [0, 0, 0, 0, 1, 0, 0]"] ;
213 -> 214 ;
215 [label="gini = 0.0\nsamples = 14\nvalue = [0, 0, 0, 14, 0, 0, 0]"] ;
213 -> 215 ;
216 [label="density <= 0.9949\ngini = 0.6686\nsamples = 26\nvalue = [1, 3, 13, 6, 3, 0, 0]"] ;
208 -> 216 ;
217 [label="pH <= 2.975\ngini = 0.3378\nsamples = 15\nvalue = [0, 1, 12, 2, 0, 0, 0]"] ;
216 -> 217 ;
218 [label="chlorides <= 0.0415\ngini = 0.625\nsamples = 4\nvalue = [0, 1, 1, 2, 0, 0, 0]"] ;
217 -> 218 ;
219 [label="fixed acidity <= 6.85\ngini = 0.5\nsamples = 2\nvalue = [0, 1, 1, 0, 0, 0, 0]"] ;
218 -> 219 ;
220 [label="gini = 0.0\nsamples = 1\nvalue = [0, 0, 1, 0, 0, 0, 0]"] ;
219 -> 220 ;
221 [label="gini = 0.0\nsamples = 1\nvalue = [0, 1, 0, 0, 0, 0, 0]"] ;
219 -> 221 ;
222 [label="gini = 0.0\nsamples = 2\nvalue = [0, 0, 0, 2, 0, 0, 0]"] ;
218 -> 222 ;
223 [label="gini = 0.0\nsamples = 11\nvalue = [0, 0, 11, 0, 0, 0, 0]"] ;
217 -> 223 ;
224 [label="fixed acidity <= 6.9\ngini = 0.7438\nsamples = 11\nvalue = [1, 2, 1, 4, 3, 0, 0]"] ;
216 -> 224 ;
225 [label="gini = 0.0\nsamples = 3\nvalue = [0, 0, 0, 0, 3, 0, 0]"] ;
224 -> 225 ;
226 [label="free sulfur dioxide <= 14.5\ngini = 0.6562\nsamples = 8\nvalue = [1, 2, 1, 4, 0, 0, 0]"] ;
224 -> 226 ;
227 [label="gini = 0.0\nsamples = 3\nvalue = [0, 0, 0, 3, 0, 0, 0]"] ;
226 -> 227 ;
228 [label="alcohol <= 9.85\ngini = 0.72\nsamples = 5\nvalue = [1, 2, 1, 1, 0, 0, 0]"] ;
226 -> 228 ;
229 [label="volatile acidity <= 0.22\ngini = 0.6667\nsamples = 3\nvalue = [1, 0, 1, 1, 0, 0, 0]"] ;
228 -> 229 ;
230 [label="alcohol <= 9.5\ngini = 0.5\nsamples = 2\nvalue = [0, 0, 1, 1, 0, 0, 0]"] ;
229 -> 230 ;
231 [label="gini = 0.0\nsamples = 1\nvalue = [0, 0, 1, 0, 0, 0, 0]"] ;
230 -> 231 ;
232 [label="gini = 0.0\nsamples = 1\nvalue = [0, 0, 0, 1, 0, 0, 0]"] ;
230 -> 232 ;
233 [label="gini = 0.0\nsamples = 1\nvalue = [1, 0, 0, 0, 0, 0, 0]"] ;
229 -> 233 ;
234 [label="gini = 0.0\nsamples = 2\nvalue = [0, 2, 0, 0, 0, 0, 0]"] ;
228 -> 234 ;
235 [label="fixed acidity <= 7.15\ngini = 0.4597\nsamples = 264\nvalue = [0, 4, 35, 187, 38, 0, 0]"] ;
207 -> 235 ;
236 [label="free sulfur dioxide <= 37.5\ngini = 0.3711\nsamples = 164\nvalue = [0, 4, 15, 128, 17, 0, 0]"] ;
235 -> 236 ;
237 [label="chlorides <= 0.0415\ngini = 0.2117\nsamples = 78\nvalue = [0, 3, 1, 69, 5, 0, 0]"] ;
236 -> 237 ;
238 [label="pH <= 3.285\ngini = 0.4515\nsamples = 28\nvalue = [0, 2, 1, 20, 5, 0, 0]"] ;
237 -> 238 ;
239 [label="citric acid <= 0.31\ngini = 0.2076\nsamples = 17\nvalue = [0, 0, 0, 15, 2, 0, 0]"] ;
238 -> 239 ;
240 [label="gini = 0.0\nsamples = 10\nvalue = [0, 0, 0, 10, 0, 0, 0]"] ;
239 -> 240 ;
241 [label="chlorides <= 0.035\ngini = 0.4082\nsamples = 7\nvalue = [0, 0, 0, 5, 2, 0, 0]"] ;
239 -> 241 ;
242 [label="gini = 0.0\nsamples = 5\nvalue = [0, 0, 0, 5, 0, 0, 0]"] ;
241 -> 242 ;
243 [label="gini = 0.0\nsamples = 2\nvalue = [0, 0, 0, 0, 2, 0, 0]"] ;
241 -> 243 ;
244 [label="residual sugar <= 2.15\ngini = 0.6777\nsamples = 11\nvalue = [0, 2, 1, 5, 3, 0, 0]"] ;
238 -> 244 ;
245 [label="pH <= 3.295\ngini = 0.2778\nsamples = 6\nvalue = [0, 0, 1, 5, 0, 0, 0]"] ;
244 -> 245 ;
246 [label="gini = 0.0\nsamples = 1\nvalue = [0, 0, 1, 0, 0, 0, 0]"] ;
245 -> 246 ;
247 [label="gini = 0.0\nsamples = 5\nvalue = [0, 0, 0, 5, 0, 0, 0]"] ;
245 -> 247 ;
248 [label="residual sugar <= 4.35\ngini = 0.48\nsamples = 5\nvalue = [0, 2, 0, 0, 3, 0, 0]"] ;
244 -> 248 ;
249 [label="gini = 0.0\nsamples = 2\nvalue = [0, 2, 0, 0, 0, 0, 0]"] ;
248 -> 249 ;
250 [label="gini = 0.0\nsamples = 3\nvalue = [0, 0, 0, 0, 3, 0, 0]"] ;
248 -> 250 ;
251 [label="sulphates <= 0.595\ngini = 0.0392\nsamples = 50\nvalue = [0, 1, 0, 49, 0, 0, 0]"] ;
237 -> 251 ;
252 [label="gini = 0.0\nsamples = 44\nvalue = [0, 0, 0, 44, 0, 0, 0]"] ;
251 -> 252 ;
253 [label="free sulfur dioxide <= 26.0\ngini = 0.2778\nsamples = 6\nvalue = [0, 1, 0, 5, 0, 0, 0]"] ;
251 -> 253 ;
254 [label="gini = 0.0\nsamples = 1\nvalue = [0, 1, 0, 0, 0, 0, 0]"] ;
253 -> 254 ;
255 [label="gini = 0.0\nsamples = 5\nvalue = [0, 0, 0, 5, 0, 0, 0]"] ;
253 -> 255 ;
256 [label="pH <= 2.935\ngini = 0.4832\nsamples = 86\nvalue = [0, 1, 14, 59, 12, 0, 0]"] ;
236 -> 256 ;
257 [label="gini = 0.0\nsamples = 3\nvalue = [0, 0, 0, 0, 3, 0, 0]"] ;
256 -> 257 ;
258 [label="residual sugar <= 1.35\ngini = 0.4543\nsamples = 83\nvalue = [0, 1, 14, 59, 9, 0, 0]"] ;
256 -> 258 ;
259 [label="chlorides <= 0.0355\ngini = 0.4444\nsamples = 6\nvalue = [0, 0, 4, 2, 0, 0, 0]"] ;
258 -> 259 ;
260 [label="gini = 0.0\nsamples = 2\nvalue = [0, 0, 0, 2, 0, 0, 0]"] ;
259 -> 260 ;
261 [label="gini = 0.0\nsamples = 4\nvalue = [0, 0, 4, 0, 0, 0, 0]"] ;
259 -> 261 ;
262 [label="chlorides <= 0.0395\ngini = 0.4213\nsamples = 77\nvalue = [0, 1, 10, 57, 9, 0, 0]"] ;
258 -> 262 ;
263 [label="sulphates <= 0.555\ngini = 0.5785\nsamples = 11\nvalue = [0, 1, 0, 5, 5, 0, 0]"] ;
262 -> 263 ;
264 [label="gini = 0.0\nsamples = 5\nvalue = [0, 0, 0, 5, 0, 0, 0]"] ;
263 -> 264 ;
265 [label="fixed acidity <= 6.95\ngini = 0.2778\nsamples = 6\nvalue = [0, 1, 0, 0, 5, 0, 0]"] ;
263 -> 265 ;
266 [label="gini = 0.0\nsamples = 5\nvalue = [0, 0, 0, 0, 5, 0, 0]"] ;
265 -> 266 ;
267 [label="gini = 0.0\nsamples = 1\nvalue = [0, 1, 0, 0, 0, 0, 0]"] ;
265 -> 267 ;
268 [label="total sulfur dioxide <= 246.5\ngini = 0.3526\nsamples = 66\nvalue = [0, 0, 10, 52, 4, 0, 0]"] ;
262 -> 268 ;
269 [label="citric acid <= 0.185\ngini = 0.3203\nsamples = 64\nvalue = [0, 0, 8, 52, 4, 0, 0]"] ;
268 -> 269 ;
270 [label="residual sugar <= 11.1\ngini = 0.4444\nsamples = 3\nvalue = [0, 0, 2, 1, 0, 0, 0]"] ;
269 -> 270 ;
271 [label="gini = 0.0\nsamples = 2\nvalue = [0, 0, 2, 0, 0, 0, 0]"] ;
270 -> 271 ;
272 [label="gini = 0.0\nsamples = 1\nvalue = [0, 0, 0, 1, 0, 0, 0]"] ;
270 -> 272 ;
273 [label="sulphates <= 0.815\ngini = 0.287\nsamples = 61\nvalue = [0, 0, 6, 51, 4, 0, 0]"] ;
269 -> 273 ;
274 [label="chlorides <= 0.13\ngini = 0.265\nsamples = 60\nvalue = [0, 0, 6, 51, 3, 0, 0]"] ;
273 -> 274 ;
275 [label="citric acid <= 0.275\ngini = 0.243\nsamples = 59\nvalue = [0, 0, 5, 51, 3, 0, 0]"] ;
274 -> 275 ;
276 [label="citric acid <= 0.25\ngini = 0.375\nsamples = 16\nvalue = [0, 0, 4, 12, 0, 0, 0]"] ;
275 -> 276 ;
277 [label="density <= 0.9942\ngini = 0.2449\nsamples = 14\nvalue = [0, 0, 2, 12, 0, 0, 0]"] ;
276 -> 277 ;
278 [label="density <= 0.9936\ngini = 0.5\nsamples = 4\nvalue = [0, 0, 2, 2, 0, 0, 0]"] ;
277 -> 278 ;
279 [label="gini = 0.0\nsamples = 2\nvalue = [0, 0, 0, 2, 0, 0, 0]"] ;
278 -> 279 ;
280 [label="gini = 0.0\nsamples = 2\nvalue = [0, 0, 2, 0, 0, 0, 0]"] ;
278 -> 280 ;
281 [label="gini = 0.0\nsamples = 10\nvalue = [0, 0, 0, 10, 0, 0, 0]"] ;
277 -> 281 ;
282 [label="gini = 0.0\nsamples = 2\nvalue = [0, 0, 2, 0, 0, 0, 0]"] ;
276 -> 282 ;
283 [label="sulphates <= 0.495\ngini = 0.172\nsamples = 43\nvalue = [0, 0, 1, 39, 3, 0, 0]"] ;
275 -> 283 ;
284 [label="chlorides <= 0.092\ngini = 0.5\nsamples = 2\nvalue = [0, 0, 0, 1, 1, 0, 0]"] ;
283 -> 284 ;
285 [label="gini = 0.0\nsamples = 1\nvalue = [0, 0, 0, 0, 1, 0, 0]"] ;
284 -> 285 ;
286 [label="gini = 0.0\nsamples = 1\nvalue = [0, 0, 0, 1, 0, 0, 0]"] ;
284 -> 286 ;
287 [label="citric acid <= 0.62\ngini = 0.138\nsamples = 41\nvalue = [0, 0, 1, 38, 2, 0, 0]"] ;
283 -> 287 ;
288 [label="volatile acidity <= 0.225\ngini = 0.0997\nsamples = 38\nvalue = [0, 0, 0, 36, 2, 0, 0]"] ;
287 -> 288 ;
289 [label="free sulfur dioxide <= 64.5\ngini = 0.0555\nsamples = 35\nvalue = [0, 0, 0, 34, 1, 0, 0]"] ;
288 -> 289 ;
290 [label="gini = 0.0\nsamples = 29\nvalue = [0, 0, 0, 29, 0, 0, 0]"] ;
289 -> 290 ;
291 [label="gini = 0.2778\nsamples = 6\nvalue = [0, 0, 0, 5, 1, 0, 0]"] ;
289 -> 291 ;
292 [label="alcohol <= 10.35\ngini = 0.4444\nsamples = 3\nvalue = [0, 0, 0, 2, 1, 0, 0]"] ;
288 -> 292 ;
293 [label="gini = 0.0\nsamples = 2\nvalue = [0, 0, 0, 2, 0, 0, 0]"] ;
292 -> 293 ;
294 [label="gini = 0.0\nsamples = 1\nvalue = [0, 0, 0, 0, 1, 0, 0]"] ;
292 -> 294 ;
295 [label="total sulfur dioxide <= 172.0\ngini = 0.4444\nsamples = 3\nvalue = [0, 0, 1, 2, 0, 0, 0]"] ;
287 -> 295 ;
296 [label="gini = 0.0\nsamples = 1\nvalue = [0, 0, 1, 0, 0, 0, 0]"] ;
295 -> 296 ;
297 [label="gini = 0.0\nsamples = 2\nvalue = [0, 0, 0, 2, 0, 0, 0]"] ;
295 -> 297 ;
298 [label="gini = 0.0\nsamples = 1\nvalue = [0, 0, 1, 0, 0, 0, 0]"] ;
274 -> 298 ;
299 [label="gini = 0.0\nsamples = 1\nvalue = [0, 0, 0, 0, 1, 0, 0]"] ;
273 -> 299 ;
300 [label="gini = 0.0\nsamples = 2\nvalue = [0, 0, 2, 0, 0, 0, 0]"] ;
268 -> 300 ;
301 [label="total sulfur dioxide <= 226.5\ngini = 0.5678\nsamples = 100\nvalue = [0, 0, 20, 59, 21, 0, 0]"] ;
235 -> 301 ;
302 [label="total sulfur dioxide <= 131.0\ngini = 0.5397\nsamples = 93\nvalue = [0, 0, 19, 58, 16, 0, 0]"] ;
301 -> 302 ;
303 [label="total sulfur dioxide <= 122.0\ngini = 0.6584\nsamples = 27\nvalue = [0, 0, 10, 10, 7, 0, 0]"] ;
302 -> 303 ;
304 [label="density <= 0.9918\ngini = 0.6349\nsamples = 21\nvalue = [0, 0, 5, 10, 6, 0, 0]"] ;
303 -> 304 ;
305 [label="gini = 0.0\nsamples = 2\nvalue = [0, 0, 2, 0, 0, 0, 0]"] ;
304 -> 305 ;
306 [label="free sulfur dioxide <= 27.5\ngini = 0.5983\nsamples = 19\nvalue = [0, 0, 3, 10, 6, 0, 0]"] ;
304 -> 306 ;
307 [label="citric acid <= 0.405\ngini = 0.4688\nsamples = 8\nvalue = [0, 0, 3, 5, 0, 0, 0]"] ;
306 -> 307 ;
308 [label="citric acid <= 0.255\ngini = 0.375\nsamples = 4\nvalue = [0, 0, 3, 1, 0, 0, 0]"] ;
307 -> 308 ;
309 [label="gini = 0.0\nsamples = 1\nvalue = [0, 0, 0, 1, 0, 0, 0]"] ;
308 -> 309 ;
310 [label="gini = 0.0\nsamples = 3\nvalue = [0, 0, 3, 0, 0, 0, 0]"] ;
308 -> 310 ;
311 [label="gini = 0.0\nsamples = 4\nvalue = [0, 0, 0, 4, 0, 0, 0]"] ;
307 -> 311 ;
312 [label="fixed acidity <= 7.35\ngini = 0.4959\nsamples = 11\nvalue = [0, 0, 0, 5, 6, 0, 0]"] ;
306 -> 312 ;
313 [label="gini = 0.0\nsamples = 4\nvalue = [0, 0, 0, 4, 0, 0, 0]"] ;
312 -> 313 ;
314 [label="free sulfur dioxide <= 48.5\ngini = 0.2449\nsamples = 7\nvalue = [0, 0, 0, 1, 6, 0, 0]"] ;
312 -> 314 ;
315 [label="gini = 0.0\nsamples = 6\nvalue = [0, 0, 0, 0, 6, 0, 0]"] ;
314 -> 315 ;
316 [label="gini = 0.0\nsamples = 1\nvalue = [0, 0, 0, 1, 0, 0, 0]"] ;
314 -> 316 ;
317 [label="free sulfur dioxide <= 35.5\ngini = 0.2778\nsamples = 6\nvalue = [0, 0, 5, 0, 1, 0, 0]"] ;
303 -> 317 ;
318 [label="gini = 0.0\nsamples = 5\nvalue = [0, 0, 5, 0, 0, 0, 0]"] ;
317 -> 318 ;
319 [label="gini = 0.0\nsamples = 1\nvalue = [0, 0, 0, 0, 1, 0, 0]"] ;
317 -> 319 ;
320 [label="fixed acidity <= 7.25\ngini = 0.4339\nsamples = 66\nvalue = [0, 0, 9, 48, 9, 0, 0]"] ;
302 -> 320 ;
321 [label="total sulfur dioxide <= 166.0\ngini = 0.5938\nsamples = 8\nvalue = [0, 0, 4, 3, 1, 0, 0]"] ;
320 -> 321 ;
322 [label="alcohol <= 9.75\ngini = 0.4444\nsamples = 3\nvalue = [0, 0, 0, 2, 1, 0, 0]"] ;
321 -> 322 ;
323 [label="gini = 0.0\nsamples = 2\nvalue = [0, 0, 0, 2, 0, 0, 0]"] ;
322 -> 323 ;
324 [label="gini = 0.0\nsamples = 1\nvalue = [0, 0, 0, 0, 1, 0, 0]"] ;
322 -> 324 ;
325 [label="chlorides <= 0.044\ngini = 0.32\nsamples = 5\nvalue = [0, 0, 4, 1, 0, 0, 0]"] ;
321 -> 325 ;
326 [label="gini = 0.0\nsamples = 1\nvalue = [0, 0, 0, 1, 0, 0, 0]"] ;
325 -> 326 ;
327 [label="gini = 0.0\nsamples = 4\nvalue = [0, 0, 4, 0, 0, 0, 0]"] ;
325 -> 327 ;
328 [label="citric acid <= 0.585\ngini = 0.3716\nsamples = 58\nvalue = [0, 0, 5, 45, 8, 0, 0]"] ;
320 -> 328 ;
329 [label="pH <= 3.35\ngini = 0.2996\nsamples = 52\nvalue = [0, 0, 3, 43, 6, 0, 0]"] ;
328 -> 329 ;
330 [label="free sulfur dioxide <= 48.25\ngini = 0.2549\nsamples = 49\nvalue = [0, 0, 3, 42, 4, 0, 0]"] ;
329 -> 330 ;
331 [label="alcohol <= 9.05\ngini = 0.0666\nsamples = 29\nvalue = [0, 0, 0, 28, 1, 0, 0]"] ;
330 -> 331 ;
332 [label="chlorides <= 0.049\ngini = 0.4444\nsamples = 3\nvalue = [0, 0, 0, 2, 1, 0, 0]"] ;
331 -> 332 ;
333 [label="gini = 0.0\nsamples = 1\nvalue = [0, 0, 0, 0, 1, 0, 0]"] ;
332 -> 333 ;
334 [label="gini = 0.0\nsamples = 2\nvalue = [0, 0, 0, 2, 0, 0, 0]"] ;
332 -> 334 ;
335 [label="gini = 0.0\nsamples = 26\nvalue = [0, 0, 0, 26, 0, 0, 0]"] ;
331 -> 335 ;
336 [label="volatile acidity <= 0.195\ngini = 0.465\nsamples = 20\nvalue = [0, 0, 3, 14, 3, 0, 0]"] ;
330 -> 336 ;
337 [label="density <= 0.9958\ngini = 0.4444\nsamples = 3\nvalue = [0, 0, 0, 1, 2, 0, 0]"] ;
336 -> 337 ;
338 [label="gini = 0.0\nsamples = 1\nvalue = [0, 0, 0, 1, 0, 0, 0]"] ;
337 -> 338 ;
339 [label="gini = 0.0\nsamples = 2\nvalue = [0, 0, 0, 0, 2, 0, 0]"] ;
337 -> 339 ;
340 [label="residual sugar <= 15.45\ngini = 0.3806\nsamples = 17\nvalue = [0, 0, 3, 13, 1, 0, 0]"] ;
336 -> 340 ;
341 [label="citric acid <= 0.295\ngini = 0.2551\nsamples = 14\nvalue = [0, 0, 1, 12, 1, 0, 0]"] ;
340 -> 341 ;
342 [label="gini = 0.0\nsamples = 1\nvalue = [0, 0, 1, 0, 0, 0, 0]"] ;
341 -> 342 ;
343 [label="pH <= 3.1\ngini = 0.142\nsamples = 13\nvalue = [0, 0, 0, 12, 1, 0, 0]"] ;
341 -> 343 ;
344 [label="total sulfur dioxide <= 188.5\ngini = 0.5\nsamples = 2\nvalue = [0, 0, 0, 1, 1, 0, 0]"] ;
343 -> 344 ;
345 [label="gini = 0.0\nsamples = 1\nvalue = [0, 0, 0, 0, 1, 0, 0]"] ;
344 -> 345 ;
346 [label="gini = 0.0\nsamples = 1\nvalue = [0, 0, 0, 1, 0, 0, 0]"] ;
344 -> 346 ;
347 [label="gini = 0.0\nsamples = 11\nvalue = [0, 0, 0, 11, 0, 0, 0]"] ;
343 -> 347 ;
348 [label="total sulfur dioxide <= 208.0\ngini = 0.4444\nsamples = 3\nvalue = [0, 0, 2, 1, 0, 0, 0]"] ;
340 -> 348 ;
349 [label="gini = 0.0\nsamples = 2\nvalue = [0, 0, 2, 0, 0, 0, 0]"] ;
348 -> 349 ;
350 [label="gini = 0.0\nsamples = 1\nvalue = [0, 0, 0, 1, 0, 0, 0]"] ;
348 -> 350 ;
351 [label="fixed acidity <= 7.5\ngini = 0.4444\nsamples = 3\nvalue = [0, 0, 0, 1, 2, 0, 0]"] ;
329 -> 351 ;
352 [label="gini = 0.0\nsamples = 2\nvalue = [0, 0, 0, 0, 2, 0, 0]"] ;
351 -> 352 ;
353 [label="gini = 0.0\nsamples = 1\nvalue = [0, 0, 0, 1, 0, 0, 0]"] ;
351 -> 353 ;
354 [label="fixed acidity <= 7.45\ngini = 0.6667\nsamples = 6\nvalue = [0, 0, 2, 2, 2, 0, 0]"] ;
328 -> 354 ;
355 [label="gini = 0.0\nsamples = 2\nvalue = [0, 0, 0, 2, 0, 0, 0]"] ;
354 -> 355 ;
356 [label="pH <= 3.025\ngini = 0.5\nsamples = 4\nvalue = [0, 0, 2, 0, 2, 0, 0]"] ;
354 -> 356 ;
357 [label="gini = 0.0\nsamples = 2\nvalue = [0, 0, 2, 0, 0, 0, 0]"] ;
356 -> 357 ;
358 [label="gini = 0.0\nsamples = 2\nvalue = [0, 0, 0, 0, 2, 0, 0]"] ;
356 -> 358 ;
359 [label="total sulfur dioxide <= 230.0\ngini = 0.449\nsamples = 7\nvalue = [0, 0, 1, 1, 5, 0, 0]"] ;
301 -> 359 ;
360 [label="gini = 0.0\nsamples = 5\nvalue = [0, 0, 0, 0, 5, 0, 0]"] ;
359 -> 360 ;
361 [label="fixed acidity <= 8.25\ngini = 0.5\nsamples = 2\nvalue = [0, 0, 1, 1, 0, 0, 0]"] ;
359 -> 361 ;
362 [label="gini = 0.0\nsamples = 1\nvalue = [0, 0, 0, 1, 0, 0, 0]"] ;
361 -> 362 ;
363 [label="gini = 0.0\nsamples = 1\nvalue = [0, 0, 1, 0, 0, 0, 0]"] ;
361 -> 363 ;
364 [label="gini = 0.0\nsamples = 4\nvalue = [0, 0, 0, 0, 4, 0, 0]"] ;
206 -> 364 ;
365 [label="alcohol <= 9.85\ngini = 0.5768\nsamples = 1289\nvalue = [6, 76, 696, 459, 48, 3, 1]"] ;
1 -> 365 ;
366 [label="volatile acidity <= 0.3025\ngini = 0.5324\nsamples = 893\nvalue = [4, 49, 544, 272, 24, 0, 0]"] ;
365 -> 366 ;
367 [label="free sulfur dioxide <= 67.5\ngini = 0.5631\nsamples = 444\nvalue = [2, 15, 238, 170, 19, 0, 0]"] ;
366 -> 367 ;
368 [label="free sulfur dioxide <= 22.5\ngini = 0.5564\nsamples = 425\nvalue = [1, 14, 235, 156, 19, 0, 0]"] ;
367 -> 368 ;
369 [label="alcohol <= 9.525\ngini = 0.3974\nsamples = 41\nvalue = [0, 4, 31, 6, 0, 0, 0]"] ;
368 -> 369 ;
370 [label="pH <= 2.995\ngini = 0.231\nsamples = 31\nvalue = [0, 3, 27, 1, 0, 0, 0]"] ;
369 -> 370 ;
371 [label="residual sugar <= 3.05\ngini = 0.4444\nsamples = 3\nvalue = [0, 2, 1, 0, 0, 0, 0]"] ;
370 -> 371 ;
372 [label="gini = 0.0\nsamples = 1\nvalue = [0, 0, 1, 0, 0, 0, 0]"] ;
371 -> 372 ;
373 [label="gini = 0.0\nsamples = 2\nvalue = [0, 2, 0, 0, 0, 0, 0]"] ;
371 -> 373 ;
374 [label="total sulfur dioxide <= 186.0\ngini = 0.1352\nsamples = 28\nvalue = [0, 1, 26, 1, 0, 0, 0]"] ;
370 -> 374 ;
375 [label="pH <= 3.25\ngini = 0.0713\nsamples = 27\nvalue = [0, 0, 26, 1, 0, 0, 0]"] ;
374 -> 375 ;
376 [label="gini = 0.0\nsamples = 25\nvalue = [0, 0, 25, 0, 0, 0, 0]"] ;
375 -> 376 ;
377 [label="citric acid <= 0.195\ngini = 0.5\nsamples = 2\nvalue = [0, 0, 1, 1, 0, 0, 0]"] ;
375 -> 377 ;
378 [label="gini = 0.0\nsamples = 1\nvalue = [0, 0, 1, 0, 0, 0, 0]"] ;
377 -> 378 ;
379 [label="gini = 0.0\nsamples = 1\nvalue = [0, 0, 0, 1, 0, 0, 0]"] ;
377 -> 379 ;
380 [label="gini = 0.0\nsamples = 1\nvalue = [0, 1, 0, 0, 0, 0, 0]"] ;
374 -> 380 ;
381 [label="chlorides <= 0.044\ngini = 0.58\nsamples = 10\nvalue = [0, 1, 4, 5, 0, 0, 0]"] ;
369 -> 381 ;
382 [label="gini = 0.0\nsamples = 4\nvalue = [0, 0, 0, 4, 0, 0, 0]"] ;
381 -> 382 ;
383 [label="residual sugar <= 1.5\ngini = 0.5\nsamples = 6\nvalue = [0, 1, 4, 1, 0, 0, 0]"] ;
381 -> 383 ;
384 [label="free sulfur dioxide <= 13.5\ngini = 0.5\nsamples = 2\nvalue = [0, 1, 0, 1, 0, 0, 0]"] ;
383 -> 384 ;
385 [label="gini = 0.0\nsamples = 1\nvalue = [0, 1, 0, 0, 0, 0, 0]"] ;
384 -> 385 ;
386 [label="gini = 0.0\nsamples = 1\nvalue = [0, 0, 0, 1, 0, 0, 0]"] ;
384 -> 386 ;
387 [label="gini = 0.0\nsamples = 4\nvalue = [0, 0, 4, 0, 0, 0, 0]"] ;
383 -> 387 ;
388 [label="total sulfur dioxide <= 113.0\ngini = 0.5621\nsamples = 384\nvalue = [1, 10, 204, 150, 19, 0, 0]"] ;
368 -> 388 ;
389 [label="gini = 0.0\nsamples = 11\nvalue = [0, 0, 0, 11, 0, 0, 0]"] ;
388 -> 389 ;
390 [label="citric acid <= 0.235\ngini = 0.5587\nsamples = 373\nvalue = [1, 10, 204, 139, 19, 0, 0]"] ;
388 -> 390 ;
391 [label="chlorides <= 0.0355\ngini = 0.4201\nsamples = 52\nvalue = [1, 1, 38, 11, 1, 0, 0]"] ;
390 -> 391 ;
392 [label="gini = 0.0\nsamples = 3\nvalue = [0, 0, 0, 3, 0, 0, 0]"] ;
391 -> 392 ;
393 [label="sulphates <= 0.535\ngini = 0.3707\nsamples = 49\nvalue = [1, 1, 38, 8, 1, 0, 0]"] ;
391 -> 393 ;
394 [label="sulphates <= 0.41\ngini = 0.188\nsamples = 39\nvalue = [1, 0, 35, 3, 0, 0, 0]"] ;
393 -> 394 ;
395 [label="density <= 0.9962\ngini = 0.4898\nsamples = 7\nvalue = [0, 0, 4, 3, 0, 0, 0]"] ;
394 -> 395 ;
396 [label="gini = 0.0\nsamples = 3\nvalue = [0, 0, 3, 0, 0, 0, 0]"] ;
395 -> 396 ;
397 [label="citric acid <= 0.205\ngini = 0.375\nsamples = 4\nvalue = [0, 0, 1, 3, 0, 0, 0]"] ;
395 -> 397 ;
398 [label="gini = 0.0\nsamples = 1\nvalue = [0, 0, 1, 0, 0, 0, 0]"] ;
397 -> 398 ;
399 [label="gini = 0.0\nsamples = 3\nvalue = [0, 0, 0, 3, 0, 0, 0]"] ;
397 -> 399 ;
400 [label="chlorides <= 0.0715\ngini = 0.0605\nsamples = 32\nvalue = [1, 0, 31, 0, 0, 0, 0]"] ;
394 -> 400 ;
401 [label="gini = 0.0\nsamples = 31\nvalue = [0, 0, 31, 0, 0, 0, 0]"] ;
400 -> 401 ;
402 [label="gini = 0.0\nsamples = 1\nvalue = [1, 0, 0, 0, 0, 0, 0]"] ;
400 -> 402 ;
403 [label="sulphates <= 0.655\ngini = 0.64\nsamples = 10\nvalue = [0, 1, 3, 5, 1, 0, 0]"] ;
393 -> 403 ;
404 [label="residual sugar <= 5.65\ngini = 0.5625\nsamples = 8\nvalue = [0, 1, 1, 5, 1, 0, 0]"] ;
403 -> 404 ;
405 [label="citric acid <= 0.215\ngini = 0.5\nsamples = 2\nvalue = [0, 1, 1, 0, 0, 0, 0]"] ;
404 -> 405 ;
406 [label="gini = 0.0\nsamples = 1\nvalue = [0, 1, 0, 0, 0, 0, 0]"] ;
405 -> 406 ;
407 [label="gini = 0.0\nsamples = 1\nvalue = [0, 0, 1, 0, 0, 0, 0]"] ;
405 -> 407 ;
408 [label="free sulfur dioxide <= 27.0\ngini = 0.2778\nsamples = 6\nvalue = [0, 0, 0, 5, 1, 0, 0]"] ;
404 -> 408 ;
409 [label="gini = 0.0\nsamples = 1\nvalue = [0, 0, 0, 0, 1, 0, 0]"] ;
408 -> 409 ;
410 [label="gini = 0.0\nsamples = 5\nvalue = [0, 0, 0, 5, 0, 0, 0]"] ;
408 -> 410 ;
411 [label="gini = 0.0\nsamples = 2\nvalue = [0, 0, 2, 0, 0, 0, 0]"] ;
403 -> 411 ;
412 [label="citric acid <= 0.395\ngini = 0.5696\nsamples = 321\nvalue = [0, 9, 166, 128, 18, 0, 0]"] ;
390 -> 412 ;
413 [label="chlorides <= 0.0375\ngini = 0.5917\nsamples = 182\nvalue = [0, 4, 81, 82, 15, 0, 0]"] ;
412 -> 413 ;
414 [label="chlorides <= 0.033\ngini = 0.32\nsamples = 10\nvalue = [0, 0, 8, 0, 2, 0, 0]"] ;
413 -> 414 ;
415 [label="free sulfur dioxide <= 62.0\ngini = 0.4444\nsamples = 3\nvalue = [0, 0, 1, 0, 2, 0, 0]"] ;
414 -> 415 ;
416 [label="gini = 0.0\nsamples = 2\nvalue = [0, 0, 0, 0, 2, 0, 0]"] ;
415 -> 416 ;
417 [label="gini = 0.0\nsamples = 1\nvalue = [0, 0, 1, 0, 0, 0, 0]"] ;
415 -> 417 ;
418 [label="gini = 0.0\nsamples = 7\nvalue = [0, 0, 7, 0, 0, 0, 0]"] ;
414 -> 418 ;
419 [label="chlorides <= 0.0435\ngini = 0.5863\nsamples = 172\nvalue = [0, 4, 73, 82, 13, 0, 0]"] ;
413 -> 419 ;
420 [label="alcohol <= 9.75\ngini = 0.38\nsamples = 30\nvalue = [0, 0, 5, 23, 2, 0, 0]"] ;
419 -> 420 ;
421 [label="volatile acidity <= 0.245\ngini = 0.2634\nsamples = 27\nvalue = [0, 0, 2, 23, 2, 0, 0]"] ;
420 -> 421 ;
422 [label="sulphates <= 0.52\ngini = 0.625\nsamples = 4\nvalue = [0, 0, 1, 1, 2, 0, 0]"] ;
421 -> 422 ;
423 [label="alcohol <= 9.3\ngini = 0.5\nsamples = 2\nvalue = [0, 0, 1, 1, 0, 0, 0]"] ;
422 -> 423 ;
424 [label="gini = 0.0\nsamples = 1\nvalue = [0, 0, 1, 0, 0, 0, 0]"] ;
423 -> 424 ;
425 [label="gini = 0.0\nsamples = 1\nvalue = [0, 0, 0, 1, 0, 0, 0]"] ;
423 -> 425 ;
426 [label="gini = 0.0\nsamples = 2\nvalue = [0, 0, 0, 0, 2, 0, 0]"] ;
422 -> 426 ;
427 [label="density <= 1.0001\ngini = 0.0832\nsamples = 23\nvalue = [0, 0, 1, 22, 0, 0, 0]"] ;
421 -> 427 ;
428 [label="gini = 0.0\nsamples = 22\nvalue = [0, 0, 0, 22, 0, 0, 0]"] ;
427 -> 428 ;
429 [label="gini = 0.0\nsamples = 1\nvalue = [0, 0, 1, 0, 0, 0, 0]"] ;
427 -> 429 ;
430 [label="gini = 0.0\nsamples = 3\nvalue = [0, 0, 3, 0, 0, 0, 0]"] ;
420 -> 430 ;
431 [label="pH <= 3.075\ngini = 0.5913\nsamples = 142\nvalue = [0, 4, 68, 59, 11, 0, 0]"] ;
419 -> 431 ;
432 [label="total sulfur dioxide <= 186.0\ngini = 0.656\nsamples = 37\nvalue = [0, 1, 10, 17, 9, 0, 0]"] ;
431 -> 432 ;
433 [label="total sulfur dioxide <= 169.5\ngini = 0.445\nsamples = 20\nvalue = [0, 1, 5, 14, 0, 0, 0]"] ;
432 -> 433 ;
434 [label="density <= 0.9951\ngini = 0.4938\nsamples = 9\nvalue = [0, 0, 5, 4, 0, 0, 0]"] ;
433 -> 434 ;
435 [label="gini = 0.0\nsamples = 3\nvalue = [0, 0, 0, 3, 0, 0, 0]"] ;
434 -> 435 ;
436 [label="sulphates <= 0.415\ngini = 0.2778\nsamples = 6\nvalue = [0, 0, 5, 1, 0, 0, 0]"] ;
434 -> 436 ;
437 [label="gini = 0.0\nsamples = 1\nvalue = [0, 0, 0, 1, 0, 0, 0]"] ;
436 -> 437 ;
438 [label="gini = 0.0\nsamples = 5\nvalue = [0, 0, 5, 0, 0, 0, 0]"] ;
436 -> 438 ;
439 [label="citric acid <= 0.28\ngini = 0.1653\nsamples = 11\nvalue = [0, 1, 0, 10, 0, 0, 0]"] ;
433 -> 439 ;
440 [label="gini = 0.0\nsamples = 1\nvalue = [0, 1, 0, 0, 0, 0, 0]"] ;
439 -> 440 ;
441 [label="gini = 0.0\nsamples = 10\nvalue = [0, 0, 0, 10, 0, 0, 0]"] ;
439 -> 441 ;
442 [label="total sulfur dioxide <= 200.5\ngini = 0.6021\nsamples = 17\nvalue = [0, 0, 5, 3, 9, 0, 0]"] ;
432 -> 442 ;
443 [label="density <= 0.9979\ngini = 0.18\nsamples = 10\nvalue = [0, 0, 1, 0, 9, 0, 0]"] ;
442 -> 443 ;
444 [label="gini = 0.0\nsamples = 1\nvalue = [0, 0, 1, 0, 0, 0, 0]"] ;
443 -> 444 ;
445 [label="gini = 0.0\nsamples = 9\nvalue = [0, 0, 0, 0, 9, 0, 0]"] ;
443 -> 445 ;
446 [label="chlorides <= 0.0455\ngini = 0.4898\nsamples = 7\nvalue = [0, 0, 4, 3, 0, 0, 0]"] ;
442 -> 446 ;
447 [label="gini = 0.0\nsamples = 3\nvalue = [0, 0, 0, 3, 0, 0, 0]"] ;
446 -> 447 ;
448 [label="gini = 0.0\nsamples = 4\nvalue = [0, 0, 4, 0, 0, 0, 0]"] ;
446 -> 448 ;
449 [label="fixed acidity <= 7.25\ngini = 0.5337\nsamples = 105\nvalue = [0, 3, 58, 42, 2, 0, 0]"] ;
431 -> 449 ;
450 [label="alcohol <= 9.05\ngini = 0.5618\nsamples = 75\nvalue = [0, 3, 34, 36, 2, 0, 0]"] ;
449 -> 450 ;
451 [label="chlorides <= 0.053\ngini = 0.6864\nsamples = 13\nvalue = [0, 3, 6, 2, 2, 0, 0]"] ;
450 -> 451 ;
452 [label="sulphates <= 0.51\ngini = 0.4062\nsamples = 8\nvalue = [0, 1, 6, 1, 0, 0, 0]"] ;
451 -> 452 ;
453 [label="gini = 0.0\nsamples = 6\nvalue = [0, 0, 6, 0, 0, 0, 0]"] ;
452 -> 453 ;
454 [label="citric acid <= 0.27\ngini = 0.5\nsamples = 2\nvalue = [0, 1, 0, 1, 0, 0, 0]"] ;
452 -> 454 ;
455 [label="gini = 0.0\nsamples = 1\nvalue = [0, 0, 0, 1, 0, 0, 0]"] ;
454 -> 455 ;
456 [label="gini = 0.0\nsamples = 1\nvalue = [0, 1, 0, 0, 0, 0, 0]"] ;
454 -> 456 ;
457 [label="fixed acidity <= 6.85\ngini = 0.64\nsamples = 5\nvalue = [0, 2, 0, 1, 2, 0, 0]"] ;
451 -> 457 ;
458 [label="sulphates <= 0.42\ngini = 0.4444\nsamples = 3\nvalue = [0, 2, 0, 1, 0, 0, 0]"] ;
457 -> 458 ;
459 [label="gini = 0.0\nsamples = 1\nvalue = [0, 0, 0, 1, 0, 0, 0]"] ;
458 -> 459 ;
460 [label="gini = 0.0\nsamples = 2\nvalue = [0, 2, 0, 0, 0, 0, 0]"] ;
458 -> 460 ;
461 [label="gini = 0.0\nsamples = 2\nvalue = [0, 0, 0, 0, 2, 0, 0]"] ;
457 -> 461 ;
462 [label="fixed acidity <= 6.75\ngini = 0.4953\nsamples = 62\nvalue = [0, 0, 28, 34, 0, 0, 0]"] ;
450 -> 462 ;
463 [label="fixed acidity <= 6.35\ngini = 0.4998\nsamples = 53\nvalue = [0, 0, 27, 26, 0, 0, 0]"] ;
462 -> 463 ;
464 [label="chlorides <= 0.0455\ngini = 0.4527\nsamples = 26\nvalue = [0, 0, 9, 17, 0, 0, 0]"] ;
463 -> 464 ;
465 [label="volatile acidity <= 0.265\ngini = 0.2778\nsamples = 6\nvalue = [0, 0, 5, 1, 0, 0, 0]"] ;
464 -> 465 ;
466 [label="gini = 0.0\nsamples = 5\nvalue = [0, 0, 5, 0, 0, 0, 0]"] ;
465 -> 466 ;
467 [label="gini = 0.0\nsamples = 1\nvalue = [0, 0, 0, 1, 0, 0, 0]"] ;
465 -> 467 ;
468 [label="total sulfur dioxide <= 151.0\ngini = 0.32\nsamples = 20\nvalue = [0, 0, 4, 16, 0, 0, 0]"] ;
464 -> 468 ;
469 [label="sulphates <= 0.435\ngini = 0.5\nsamples = 6\nvalue = [0, 0, 3, 3, 0, 0, 0]"] ;
468 -> 469 ;
470 [label="gini = 0.0\nsamples = 3\nvalue = [0, 0, 3, 0, 0, 0, 0]"] ;
469 -> 470 ;
471 [label="gini = 0.0\nsamples = 3\nvalue = [0, 0, 0, 3, 0, 0, 0]"] ;
469 -> 471 ;
472 [label="sulphates <= 0.49\ngini = 0.1327\nsamples = 14\nvalue = [0, 0, 1, 13, 0, 0, 0]"] ;
468 -> 472 ;
473 [label="gini = 0.0\nsamples = 12\nvalue = [0, 0, 0, 12, 0, 0, 0]"] ;
472 -> 473 ;
474 [label="sulphates <= 0.51\ngini = 0.5\nsamples = 2\nvalue = [0, 0, 1, 1, 0, 0, 0]"] ;
472 -> 474 ;
475 [label="gini = 0.0\nsamples = 1\nvalue = [0, 0, 1, 0, 0, 0, 0]"] ;
474 -> 475 ;
476 [label="gini = 0.0\nsamples = 1\nvalue = [0, 0, 0, 1, 0, 0, 0]"] ;
474 -> 476 ;
477 [label="citric acid <= 0.375\ngini = 0.4444\nsamples = 27\nvalue = [0, 0, 18, 9, 0, 0, 0]"] ;
463 -> 477 ;
478 [label="free sulfur dioxide <= 53.0\ngini = 0.4032\nsamples = 25\nvalue = [0, 0, 18, 7, 0, 0, 0]"] ;
477 -> 478 ;
479 [label="pH <= 3.175\ngini = 0.4922\nsamples = 16\nvalue = [0, 0, 9, 7, 0, 0, 0]"] ;
478 -> 479 ;
480 [label="gini = 0.0\nsamples = 4\nvalue = [0, 0, 4, 0, 0, 0, 0]"] ;
479 -> 480 ;
481 [label="sulphates <= 0.425\ngini = 0.4861\nsamples = 12\nvalue = [0, 0, 5, 7, 0, 0, 0]"] ;
479 -> 481 ;
482 [label="gini = 0.0\nsamples = 3\nvalue = [0, 0, 3, 0, 0, 0, 0]"] ;
481 -> 482 ;
483 [label="gini = 0.3457\nsamples = 9\nvalue = [0, 0, 2, 7, 0, 0, 0]"] ;
481 -> 483 ;
484 [label="gini = 0.0\nsamples = 9\nvalue = [0, 0, 9, 0, 0, 0, 0]"] ;
478 -> 484 ;
485 [label="gini = 0.0\nsamples = 2\nvalue = [0, 0, 0, 2, 0, 0, 0]"] ;
477 -> 485 ;
486 [label="residual sugar <= 13.85\ngini = 0.1975\nsamples = 9\nvalue = [0, 0, 1, 8, 0, 0, 0]"] ;
462 -> 486 ;
487 [label="gini = 0.0\nsamples = 8\nvalue = [0, 0, 0, 8, 0, 0, 0]"] ;
486 -> 487 ;
488 [label="gini = 0.0\nsamples = 1\nvalue = [0, 0, 1, 0, 0, 0, 0]"] ;
486 -> 488 ;
489 [label="free sulfur dioxide <= 24.0\ngini = 0.32\nsamples = 30\nvalue = [0, 0, 24, 6, 0, 0, 0]"] ;
449 -> 489 ;
490 [label="gini = 0.0\nsamples = 2\nvalue = [0, 0, 0, 2, 0, 0, 0]"] ;
489 -> 490 ;
491 [label="free sulfur dioxide <= 37.5\ngini = 0.2449\nsamples = 28\nvalue = [0, 0, 24, 4, 0, 0, 0]"] ;
489 -> 491 ;
492 [label="gini = 0.0\nsamples = 13\nvalue = [0, 0, 13, 0, 0, 0, 0]"] ;
491 -> 492 ;
493 [label="volatile acidity <= 0.255\ngini = 0.3911\nsamples = 15\nvalue = [0, 0, 11, 4, 0, 0, 0]"] ;
491 -> 493 ;
494 [label="gini = 0.0\nsamples = 8\nvalue = [0, 0, 8, 0, 0, 0, 0]"] ;
493 -> 494 ;
495 [label="pH <= 3.125\ngini = 0.4898\nsamples = 7\nvalue = [0, 0, 3, 4, 0, 0, 0]"] ;
493 -> 495 ;
496 [label="gini = 0.0\nsamples = 3\nvalue = [0, 0, 3, 0, 0, 0, 0]"] ;
495 -> 496 ;
497 [label="gini = 0.0\nsamples = 4\nvalue = [0, 0, 0, 4, 0, 0, 0]"] ;
495 -> 497 ;
498 [label="alcohol <= 8.85\ngini = 0.5148\nsamples = 139\nvalue = [0, 5, 85, 46, 3, 0, 0]"] ;
412 -> 498 ;
499 [label="gini = 0.0\nsamples = 14\nvalue = [0, 0, 14, 0, 0, 0, 0]"] ;
498 -> 499 ;
500 [label="total sulfur dioxide <= 172.5\ngini = 0.5398\nsamples = 125\nvalue = [0, 5, 71, 46, 3, 0, 0]"] ;
498 -> 500 ;
501 [label="citric acid <= 0.485\ngini = 0.5538\nsamples = 40\nvalue = [0, 2, 15, 22, 1, 0, 0]"] ;
500 -> 501 ;
502 [label="pH <= 3.145\ngini = 0.3367\nsamples = 14\nvalue = [0, 0, 11, 3, 0, 0, 0]"] ;
501 -> 502 ;
503 [label="gini = 0.0\nsamples = 8\nvalue = [0, 0, 8, 0, 0, 0, 0]"] ;
502 -> 503 ;
504 [label="free sulfur dioxide <= 35.0\ngini = 0.5\nsamples = 6\nvalue = [0, 0, 3, 3, 0, 0, 0]"] ;
502 -> 504 ;
505 [label="gini = 0.0\nsamples = 3\nvalue = [0, 0, 3, 0, 0, 0, 0]"] ;
504 -> 505 ;
506 [label="gini = 0.0\nsamples = 3\nvalue = [0, 0, 0, 3, 0, 0, 0]"] ;
504 -> 506 ;
507 [label="pH <= 3.105\ngini = 0.4349\nsamples = 26\nvalue = [0, 2, 4, 19, 1, 0, 0]"] ;
501 -> 507 ;
508 [label="total sulfur dioxide <= 124.5\ngini = 0.3099\nsamples = 22\nvalue = [0, 0, 3, 18, 1, 0, 0]"] ;
507 -> 508 ;
509 [label="citric acid <= 0.62\ngini = 0.4444\nsamples = 3\nvalue = [0, 0, 2, 1, 0, 0, 0]"] ;
508 -> 509 ;
510 [label="gini = 0.0\nsamples = 2\nvalue = [0, 0, 2, 0, 0, 0, 0]"] ;
509 -> 510 ;
511 [label="gini = 0.0\nsamples = 1\nvalue = [0, 0, 0, 1, 0, 0, 0]"] ;
509 -> 511 ;
512 [label="residual sugar <= 13.25\ngini = 0.1939\nsamples = 19\nvalue = [0, 0, 1, 17, 1, 0, 0]"] ;
508 -> 512 ;
513 [label="sulphates <= 0.575\ngini = 0.1049\nsamples = 18\nvalue = [0, 0, 1, 17, 0, 0, 0]"] ;
512 -> 513 ;
514 [label="gini = 0.0\nsamples = 16\nvalue = [0, 0, 0, 16, 0, 0, 0]"] ;
513 -> 514 ;
515 [label="chlorides <= 0.05\ngini = 0.5\nsamples = 2\nvalue = [0, 0, 1, 1, 0, 0, 0]"] ;
513 -> 515 ;
516 [label="gini = 0.0\nsamples = 1\nvalue = [0, 0, 1, 0, 0, 0, 0]"] ;
515 -> 516 ;
517 [label="gini = 0.0\nsamples = 1\nvalue = [0, 0, 0, 1, 0, 0, 0]"] ;
515 -> 517 ;
518 [label="gini = 0.0\nsamples = 1\nvalue = [0, 0, 0, 0, 1, 0, 0]"] ;
512 -> 518 ;
519 [label="fixed acidity <= 6.8\ngini = 0.625\nsamples = 4\nvalue = [0, 2, 1, 1, 0, 0, 0]"] ;
507 -> 519 ;
520 [label="volatile acidity <= 0.255\ngini = 0.5\nsamples = 2\nvalue = [0, 0, 1, 1, 0, 0, 0]"] ;
519 -> 520 ;
521 [label="gini = 0.0\nsamples = 1\nvalue = [0, 0, 0, 1, 0, 0, 0]"] ;
520 -> 521 ;
522 [label="gini = 0.0\nsamples = 1\nvalue = [0, 0, 1, 0, 0, 0, 0]"] ;
520 -> 522 ;
523 [label="gini = 0.0\nsamples = 2\nvalue = [0, 2, 0, 0, 0, 0, 0]"] ;
519 -> 523 ;
524 [label="pH <= 3.23\ngini = 0.4844\nsamples = 85\nvalue = [0, 3, 56, 24, 2, 0, 0]"] ;
500 -> 524 ;
525 [label="pH <= 2.945\ngini = 0.4113\nsamples = 73\nvalue = [0, 2, 53, 18, 0, 0, 0]"] ;
524 -> 525 ;
526 [label="gini = 0.0\nsamples = 3\nvalue = [0, 0, 0, 3, 0, 0, 0]"] ;
525 -> 526 ;
527 [label="sulphates <= 0.485\ngini = 0.38\nsamples = 70\nvalue = [0, 2, 53, 15, 0, 0, 0]"] ;
525 -> 527 ;
528 [label="density <= 0.9954\ngini = 0.1172\nsamples = 32\nvalue = [0, 0, 30, 2, 0, 0, 0]"] ;
527 -> 528 ;
529 [label="fixed acidity <= 6.55\ngini = 0.2778\nsamples = 12\nvalue = [0, 0, 10, 2, 0, 0, 0]"] ;
528 -> 529 ;
530 [label="citric acid <= 0.435\ngini = 0.1653\nsamples = 11\nvalue = [0, 0, 10, 1, 0, 0, 0]"] ;
529 -> 530 ;
531 [label="citric acid <= 0.42\ngini = 0.5\nsamples = 2\nvalue = [0, 0, 1, 1, 0, 0, 0]"] ;
530 -> 531 ;
532 [label="gini = 0.0\nsamples = 1\nvalue = [0, 0, 1, 0, 0, 0, 0]"] ;
531 -> 532 ;
533 [label="gini = 0.0\nsamples = 1\nvalue = [0, 0, 0, 1, 0, 0, 0]"] ;
531 -> 533 ;
534 [label="gini = 0.0\nsamples = 9\nvalue = [0, 0, 9, 0, 0, 0, 0]"] ;
530 -> 534 ;
535 [label="gini = 0.0\nsamples = 1\nvalue = [0, 0, 0, 1, 0, 0, 0]"] ;
529 -> 535 ;
536 [label="gini = 0.0\nsamples = 20\nvalue = [0, 0, 20, 0, 0, 0, 0]"] ;
528 -> 536 ;
537 [label="density <= 0.9957\ngini = 0.5139\nsamples = 38\nvalue = [0, 2, 23, 13, 0, 0, 0]"] ;
527 -> 537 ;
538 [label="alcohol <= 9.55\ngini = 0.56\nsamples = 10\nvalue = [0, 2, 2, 6, 0, 0, 0]"] ;
537 -> 538 ;
539 [label="sulphates <= 0.535\ngini = 0.375\nsamples = 8\nvalue = [0, 2, 0, 6, 0, 0, 0]"] ;
538 -> 539 ;
540 [label="gini = 0.0\nsamples = 6\nvalue = [0, 0, 0, 6, 0, 0, 0]"] ;
539 -> 540 ;
541 [label="gini = 0.0\nsamples = 2\nvalue = [0, 2, 0, 0, 0, 0, 0]"] ;
539 -> 541 ;
542 [label="gini = 0.0\nsamples = 2\nvalue = [0, 0, 2, 0, 0, 0, 0]"] ;
538 -> 542 ;
543 [label="alcohol <= 9.45\ngini = 0.375\nsamples = 28\nvalue = [0, 0, 21, 7, 0, 0, 0]"] ;
537 -> 543 ;
544 [label="residual sugar <= 15.55\ngini = 0.1172\nsamples = 16\nvalue = [0, 0, 15, 1, 0, 0, 0]"] ;
543 -> 544 ;
545 [label="gini = 0.0\nsamples = 15\nvalue = [0, 0, 15, 0, 0, 0, 0]"] ;
544 -> 545 ;
546 [label="gini = 0.0\nsamples = 1\nvalue = [0, 0, 0, 1, 0, 0, 0]"] ;
544 -> 546 ;
547 [label="density <= 0.997\ngini = 0.5\nsamples = 12\nvalue = [0, 0, 6, 6, 0, 0, 0]"] ;
543 -> 547 ;
548 [label="total sulfur dioxide <= 189.0\ngini = 0.2778\nsamples = 6\nvalue = [0, 0, 5, 1, 0, 0, 0]"] ;
547 -> 548 ;
549 [label="gini = 0.0\nsamples = 1\nvalue = [0, 0, 0, 1, 0, 0, 0]"] ;
548 -> 549 ;
550 [label="gini = 0.0\nsamples = 5\nvalue = [0, 0, 5, 0, 0, 0, 0]"] ;
548 -> 550 ;
551 [label="total sulfur dioxide <= 189.5\ngini = 0.2778\nsamples = 6\nvalue = [0, 0, 1, 5, 0, 0, 0]"] ;
547 -> 551 ;
552 [label="gini = 0.0\nsamples = 1\nvalue = [0, 0, 1, 0, 0, 0, 0]"] ;
551 -> 552 ;
553 [label="gini = 0.0\nsamples = 5\nvalue = [0, 0, 0, 5, 0, 0, 0]"] ;
551 -> 553 ;
554 [label="volatile acidity <= 0.245\ngini = 0.6528\nsamples = 12\nvalue = [0, 1, 3, 6, 2, 0, 0]"] ;
524 -> 554 ;
555 [label="gini = 0.0\nsamples = 3\nvalue = [0, 0, 3, 0, 0, 0, 0]"] ;
554 -> 555 ;
556 [label="alcohol <= 9.15\ngini = 0.4938\nsamples = 9\nvalue = [0, 1, 0, 6, 2, 0, 0]"] ;
554 -> 556 ;
557 [label="fixed acidity <= 7.7\ngini = 0.4444\nsamples = 3\nvalue = [0, 1, 0, 0, 2, 0, 0]"] ;
556 -> 557 ;
558 [label="gini = 0.0\nsamples = 2\nvalue = [0, 0, 0, 0, 2, 0, 0]"] ;
557 -> 558 ;
559 [label="gini = 0.0\nsamples = 1\nvalue = [0, 1, 0, 0, 0, 0, 0]"] ;
557 -> 559 ;
560 [label="gini = 0.0\nsamples = 6\nvalue = [0, 0, 0, 6, 0, 0, 0]"] ;
556 -> 560 ;
561 [label="free sulfur dioxide <= 79.5\ngini = 0.4266\nsamples = 19\nvalue = [1, 1, 3, 14, 0, 0, 0]"] ;
367 -> 561 ;
562 [label="gini = 0.0\nsamples = 14\nvalue = [0, 0, 0, 14, 0, 0, 0]"] ;
561 -> 562 ;
563 [label="pH <= 3.365\ngini = 0.56\nsamples = 5\nvalue = [1, 1, 3, 0, 0, 0, 0]"] ;
561 -> 563 ;
564 [label="gini = 0.0\nsamples = 3\nvalue = [0, 0, 3, 0, 0, 0, 0]"] ;
563 -> 564 ;
565 [label="residual sugar <= 1.625\ngini = 0.5\nsamples = 2\nvalue = [1, 1, 0, 0, 0, 0, 0]"] ;
563 -> 565 ;
566 [label="gini = 0.0\nsamples = 1\nvalue = [1, 0, 0, 0, 0, 0, 0]"] ;
565 -> 566 ;
567 [label="gini = 0.0\nsamples = 1\nvalue = [0, 1, 0, 0, 0, 0, 0]"] ;
565 -> 567 ;
568 [label="density <= 1.0014\ngini = 0.4781\nsamples = 449\nvalue = [2, 34, 306, 102, 5, 0, 0]"] ;
366 -> 568 ;
569 [label="volatile acidity <= 0.525\ngini = 0.4727\nsamples = 445\nvalue = [2, 34, 306, 98, 5, 0, 0]"] ;
568 -> 569 ;
570 [label="pH <= 3.065\ngini = 0.4513\nsamples = 398\nvalue = [1, 20, 279, 93, 5, 0, 0]"] ;
569 -> 570 ;
571 [label="volatile acidity <= 0.365\ngini = 0.2513\nsamples = 77\nvalue = [0, 1, 66, 9, 1, 0, 0]"] ;
570 -> 571 ;
572 [label="volatile acidity <= 0.355\ngini = 0.1152\nsamples = 50\nvalue = [0, 1, 47, 1, 1, 0, 0]"] ;
571 -> 572 ;
573 [label="fixed acidity <= 7.55\ngini = 0.0465\nsamples = 42\nvalue = [0, 0, 41, 1, 0, 0, 0]"] ;
572 -> 573 ;
574 [label="gini = 0.0\nsamples = 35\nvalue = [0, 0, 35, 0, 0, 0, 0]"] ;
573 -> 574 ;
575 [label="density <= 0.9983\ngini = 0.2449\nsamples = 7\nvalue = [0, 0, 6, 1, 0, 0, 0]"] ;
573 -> 575 ;
576 [label="gini = 0.0\nsamples = 5\nvalue = [0, 0, 5, 0, 0, 0, 0]"] ;
575 -> 576 ;
577 [label="fixed acidity <= 7.9\ngini = 0.5\nsamples = 2\nvalue = [0, 0, 1, 1, 0, 0, 0]"] ;
575 -> 577 ;
578 [label="gini = 0.0\nsamples = 1\nvalue = [0, 0, 0, 1, 0, 0, 0]"] ;
577 -> 578 ;
579 [label="gini = 0.0\nsamples = 1\nvalue = [0, 0, 1, 0, 0, 0, 0]"] ;
577 -> 579 ;
580 [label="fixed acidity <= 7.45\ngini = 0.4062\nsamples = 8\nvalue = [0, 1, 6, 0, 1, 0, 0]"] ;
572 -> 580 ;
581 [label="density <= 0.9982\ngini = 0.5\nsamples = 2\nvalue = [0, 1, 0, 0, 1, 0, 0]"] ;
580 -> 581 ;
582 [label="gini = 0.0\nsamples = 1\nvalue = [0, 0, 0, 0, 1, 0, 0]"] ;
581 -> 582 ;
583 [label="gini = 0.0\nsamples = 1\nvalue = [0, 1, 0, 0, 0, 0, 0]"] ;
581 -> 583 ;
584 [label="gini = 0.0\nsamples = 6\nvalue = [0, 0, 6, 0, 0, 0, 0]"] ;
580 -> 584 ;
585 [label="volatile acidity <= 0.385\ngini = 0.417\nsamples = 27\nvalue = [0, 0, 19, 8, 0, 0, 0]"] ;
571 -> 585 ;
586 [label="chlorides <= 0.081\ngini = 0.4082\nsamples = 7\nvalue = [0, 0, 2, 5, 0, 0, 0]"] ;
585 -> 586 ;
587 [label="gini = 0.0\nsamples = 5\nvalue = [0, 0, 0, 5, 0, 0, 0]"] ;
586 -> 587 ;
588 [label="gini = 0.0\nsamples = 2\nvalue = [0, 0, 2, 0, 0, 0, 0]"] ;
586 -> 588 ;
589 [label="pH <= 3.055\ngini = 0.255\nsamples = 20\nvalue = [0, 0, 17, 3, 0, 0, 0]"] ;
585 -> 589 ;
590 [label="pH <= 2.815\ngini = 0.1049\nsamples = 18\nvalue = [0, 0, 17, 1, 0, 0, 0]"] ;
589 -> 590 ;
591 [label="gini = 0.0\nsamples = 1\nvalue = [0, 0, 0, 1, 0, 0, 0]"] ;
590 -> 591 ;
592 [label="gini = 0.0\nsamples = 17\nvalue = [0, 0, 17, 0, 0, 0, 0]"] ;
590 -> 592 ;
593 [label="gini = 0.0\nsamples = 2\nvalue = [0, 0, 0, 2, 0, 0, 0]"] ;
589 -> 593 ;
594 [label="density <= 0.993\ngini = 0.4876\nsamples = 321\nvalue = [1, 19, 213, 84, 4, 0, 0]"] ;
570 -> 594 ;
595 [label="total sulfur dioxide <= 98.5\ngini = 0.5511\nsamples = 15\nvalue = [0, 1, 6, 8, 0, 0, 0]"] ;
594 -> 595 ;
596 [label="gini = 0.0\nsamples = 3\nvalue = [0, 0, 3, 0, 0, 0, 0]"] ;
595 -> 596 ;
597 [label="free sulfur dioxide <= 45.5\ngini = 0.4861\nsamples = 12\nvalue = [0, 1, 3, 8, 0, 0, 0]"] ;
595 -> 597 ;
598 [label="pH <= 3.295\ngini = 0.34\nsamples = 10\nvalue = [0, 1, 1, 8, 0, 0, 0]"] ;
597 -> 598 ;
599 [label="citric acid <= 0.03\ngini = 0.1975\nsamples = 9\nvalue = [0, 1, 0, 8, 0, 0, 0]"] ;
598 -> 599 ;
600 [label="gini = 0.0\nsamples = 1\nvalue = [0, 1, 0, 0, 0, 0, 0]"] ;
599 -> 600 ;
601 [label="gini = 0.0\nsamples = 8\nvalue = [0, 0, 0, 8, 0, 0, 0]"] ;
599 -> 601 ;
602 [label="gini = 0.0\nsamples = 1\nvalue = [0, 0, 1, 0, 0, 0, 0]"] ;
598 -> 602 ;
603 [label="gini = 0.0\nsamples = 2\nvalue = [0, 0, 2, 0, 0, 0, 0]"] ;
597 -> 603 ;
604 [label="chlorides <= 0.0405\ngini = 0.4771\nsamples = 306\nvalue = [1, 18, 207, 76, 4, 0, 0]"] ;
594 -> 604 ;
605 [label="volatile acidity <= 0.345\ngini = 0.5803\nsamples = 33\nvalue = [0, 2, 16, 14, 1, 0, 0]"] ;
604 -> 605 ;
606 [label="citric acid <= 0.195\ngini = 0.3787\nsamples = 13\nvalue = [0, 0, 2, 10, 1, 0, 0]"] ;
605 -> 606 ;
607 [label="gini = 0.0\nsamples = 2\nvalue = [0, 0, 2, 0, 0, 0, 0]"] ;
606 -> 607 ;
608 [label="pH <= 3.35\ngini = 0.1653\nsamples = 11\nvalue = [0, 0, 0, 10, 1, 0, 0]"] ;
606 -> 608 ;
609 [label="gini = 0.0\nsamples = 10\nvalue = [0, 0, 0, 10, 0, 0, 0]"] ;
608 -> 609 ;
610 [label="gini = 0.0\nsamples = 1\nvalue = [0, 0, 0, 0, 1, 0, 0]"] ;
608 -> 610 ;
611 [label="total sulfur dioxide <= 193.5\ngini = 0.46\nsamples = 20\nvalue = [0, 2, 14, 4, 0, 0, 0]"] ;
605 -> 611 ;
612 [label="citric acid <= 0.01\ngini = 0.3378\nsamples = 15\nvalue = [0, 2, 12, 1, 0, 0, 0]"] ;
611 -> 612 ;
613 [label="gini = 0.0\nsamples = 1\nvalue = [0, 1, 0, 0, 0, 0, 0]"] ;
612 -> 613 ;
614 [label="free sulfur dioxide <= 9.5\ngini = 0.2551\nsamples = 14\nvalue = [0, 1, 12, 1, 0, 0, 0]"] ;
612 -> 614 ;
615 [label="gini = 0.0\nsamples = 1\nvalue = [0, 1, 0, 0, 0, 0, 0]"] ;
614 -> 615 ;
616 [label="volatile acidity <= 0.425\ngini = 0.142\nsamples = 13\nvalue = [0, 0, 12, 1, 0, 0, 0]"] ;
614 -> 616 ;
617 [label="gini = 0.0\nsamples = 11\nvalue = [0, 0, 11, 0, 0, 0, 0]"] ;
616 -> 617 ;
618 [label="residual sugar <= 6.65\ngini = 0.5\nsamples = 2\nvalue = [0, 0, 1, 1, 0, 0, 0]"] ;
616 -> 618 ;
619 [label="gini = 0.0\nsamples = 1\nvalue = [0, 0, 1, 0, 0, 0, 0]"] ;
618 -> 619 ;
620 [label="gini = 0.0\nsamples = 1\nvalue = [0, 0, 0, 1, 0, 0, 0]"] ;
618 -> 620 ;
621 [label="density <= 0.9975\ngini = 0.48\nsamples = 5\nvalue = [0, 0, 2, 3, 0, 0, 0]"] ;
611 -> 621 ;
622 [label="gini = 0.0\nsamples = 3\nvalue = [0, 0, 0, 3, 0, 0, 0]"] ;
621 -> 622 ;
623 [label="gini = 0.0\nsamples = 2\nvalue = [0, 0, 2, 0, 0, 0, 0]"] ;
621 -> 623 ;
624 [label="sulphates <= 0.455\ngini = 0.4554\nsamples = 273\nvalue = [1, 16, 191, 62, 3, 0, 0]"] ;
604 -> 624 ;
625 [label="total sulfur dioxide <= 73.5\ngini = 0.3665\nsamples = 87\nvalue = [0, 7, 68, 11, 1, 0, 0]"] ;
624 -> 625 ;
626 [label="gini = 0.0\nsamples = 2\nvalue = [0, 0, 0, 2, 0, 0, 0]"] ;
625 -> 626 ;
627 [label="chlorides <= 0.0585\ngini = 0.3419\nsamples = 85\nvalue = [0, 7, 68, 9, 1, 0, 0]"] ;
625 -> 627 ;
628 [label="pH <= 3.34\ngini = 0.223\nsamples = 65\nvalue = [0, 3, 57, 5, 0, 0, 0]"] ;
627 -> 628 ;
629 [label="total sulfur dioxide <= 101.5\ngini = 0.2007\nsamples = 64\nvalue = [0, 3, 57, 4, 0, 0, 0]"] ;
628 -> 629 ;
630 [label="free sulfur dioxide <= 19.5\ngini = 0.5\nsamples = 4\nvalue = [0, 2, 2, 0, 0, 0, 0]"] ;
629 -> 630 ;
631 [label="gini = 0.0\nsamples = 2\nvalue = [0, 2, 0, 0, 0, 0, 0]"] ;
630 -> 631 ;
632 [label="gini = 0.0\nsamples = 2\nvalue = [0, 0, 2, 0, 0, 0, 0]"] ;
630 -> 632 ;
633 [label="fixed acidity <= 5.95\ngini = 0.155\nsamples = 60\nvalue = [0, 1, 55, 4, 0, 0, 0]"] ;
629 -> 633 ;
634 [label="gini = 0.0\nsamples = 1\nvalue = [0, 0, 0, 1, 0, 0, 0]"] ;
633 -> 634 ;
635 [label="chlorides <= 0.0455\ngini = 0.1281\nsamples = 59\nvalue = [0, 1, 55, 3, 0, 0, 0]"] ;
633 -> 635 ;
636 [label="total sulfur dioxide <= 166.0\ngini = 0.3047\nsamples = 16\nvalue = [0, 0, 13, 3, 0, 0, 0]"] ;
635 -> 636 ;
637 [label="gini = 0.0\nsamples = 11\nvalue = [0, 0, 11, 0, 0, 0, 0]"] ;
636 -> 637 ;
638 [label="free sulfur dioxide <= 65.0\ngini = 0.48\nsamples = 5\nvalue = [0, 0, 2, 3, 0, 0, 0]"] ;
636 -> 638 ;
639 [label="gini = 0.0\nsamples = 3\nvalue = [0, 0, 0, 3, 0, 0, 0]"] ;
638 -> 639 ;
640 [label="gini = 0.0\nsamples = 2\nvalue = [0, 0, 2, 0, 0, 0, 0]"] ;
638 -> 640 ;
641 [label="alcohol <= 8.85\ngini = 0.0454\nsamples = 43\nvalue = [0, 1, 42, 0, 0, 0, 0]"] ;
635 -> 641 ;
642 [label="pH <= 3.215\ngini = 0.32\nsamples = 5\nvalue = [0, 1, 4, 0, 0, 0, 0]"] ;
641 -> 642 ;
643 [label="gini = 0.0\nsamples = 4\nvalue = [0, 0, 4, 0, 0, 0, 0]"] ;
642 -> 643 ;
644 [label="gini = 0.0\nsamples = 1\nvalue = [0, 1, 0, 0, 0, 0, 0]"] ;
642 -> 644 ;
645 [label="gini = 0.0\nsamples = 38\nvalue = [0, 0, 38, 0, 0, 0, 0]"] ;
641 -> 645 ;
646 [label="gini = 0.0\nsamples = 1\nvalue = [0, 0, 0, 1, 0, 0, 0]"] ;
628 -> 646 ;
647 [label="chlorides <= 0.063\ngini = 0.615\nsamples = 20\nvalue = [0, 4, 11, 4, 1, 0, 0]"] ;
627 -> 647 ;
648 [label="pH <= 3.15\ngini = 0.5714\nsamples = 7\nvalue = [0, 4, 0, 2, 1, 0, 0]"] ;
647 -> 648 ;
649 [label="gini = 0.0\nsamples = 4\nvalue = [0, 4, 0, 0, 0, 0, 0]"] ;
648 -> 649 ;
650 [label="total sulfur dioxide <= 130.0\ngini = 0.4444\nsamples = 3\nvalue = [0, 0, 0, 2, 1, 0, 0]"] ;
648 -> 650 ;
651 [label="gini = 0.0\nsamples = 1\nvalue = [0, 0, 0, 0, 1, 0, 0]"] ;
650 -> 651 ;
652 [label="gini = 0.0\nsamples = 2\nvalue = [0, 0, 0, 2, 0, 0, 0]"] ;
650 -> 652 ;
653 [label="free sulfur dioxide <= 21.5\ngini = 0.2604\nsamples = 13\nvalue = [0, 0, 11, 2, 0, 0, 0]"] ;
647 -> 653 ;
654 [label="gini = 0.0\nsamples = 1\nvalue = [0, 0, 0, 1, 0, 0, 0]"] ;
653 -> 654 ;
655 [label="pH <= 3.225\ngini = 0.1528\nsamples = 12\nvalue = [0, 0, 11, 1, 0, 0, 0]"] ;
653 -> 655 ;
656 [label="gini = 0.0\nsamples = 10\nvalue = [0, 0, 10, 0, 0, 0, 0]"] ;
655 -> 656 ;
657 [label="total sulfur dioxide <= 177.5\ngini = 0.5\nsamples = 2\nvalue = [0, 0, 1, 1, 0, 0, 0]"] ;
655 -> 657 ;
658 [label="gini = 0.0\nsamples = 1\nvalue = [0, 0, 0, 1, 0, 0, 0]"] ;
657 -> 658 ;
659 [label="gini = 0.0\nsamples = 1\nvalue = [0, 0, 1, 0, 0, 0, 0]"] ;
657 -> 659 ;
660 [label="density <= 0.9949\ngini = 0.485\nsamples = 186\nvalue = [1, 9, 123, 51, 2, 0, 0]"] ;
624 -> 660 ;
661 [label="volatile acidity <= 0.385\ngini = 0.2963\nsamples = 41\nvalue = [0, 1, 34, 5, 1, 0, 0]"] ;
660 -> 661 ;
662 [label="free sulfur dioxide <= 11.5\ngini = 0.1308\nsamples = 29\nvalue = [0, 0, 27, 1, 1, 0, 0]"] ;
661 -> 662 ;
663 [label="gini = 0.0\nsamples = 1\nvalue = [0, 0, 0, 0, 1, 0, 0]"] ;
662 -> 663 ;
664 [label="pH <= 3.345\ngini = 0.0689\nsamples = 28\nvalue = [0, 0, 27, 1, 0, 0, 0]"] ;
662 -> 664 ;
665 [label="gini = 0.0\nsamples = 25\nvalue = [0, 0, 25, 0, 0, 0, 0]"] ;
664 -> 665 ;
666 [label="total sulfur dioxide <= 174.0\ngini = 0.4444\nsamples = 3\nvalue = [0, 0, 2, 1, 0, 0, 0]"] ;
664 -> 666 ;
667 [label="gini = 0.0\nsamples = 2\nvalue = [0, 0, 2, 0, 0, 0, 0]"] ;
666 -> 667 ;
668 [label="gini = 0.0\nsamples = 1\nvalue = [0, 0, 0, 1, 0, 0, 0]"] ;
666 -> 668 ;
669 [label="fixed acidity <= 6.1\ngini = 0.5417\nsamples = 12\nvalue = [0, 1, 7, 4, 0, 0, 0]"] ;
661 -> 669 ;
670 [label="gini = 0.0\nsamples = 3\nvalue = [0, 0, 0, 3, 0, 0, 0]"] ;
669 -> 670 ;
671 [label="pH <= 3.26\ngini = 0.3704\nsamples = 9\nvalue = [0, 1, 7, 1, 0, 0, 0]"] ;
669 -> 671 ;
672 [label="citric acid <= 0.53\ngini = 0.2188\nsamples = 8\nvalue = [0, 0, 7, 1, 0, 0, 0]"] ;
671 -> 672 ;
673 [label="gini = 0.0\nsamples = 6\nvalue = [0, 0, 6, 0, 0, 0, 0]"] ;
672 -> 673 ;
674 [label="residual sugar <= 1.3\ngini = 0.5\nsamples = 2\nvalue = [0, 0, 1, 1, 0, 0, 0]"] ;
672 -> 674 ;
675 [label="gini = 0.0\nsamples = 1\nvalue = [0, 0, 1, 0, 0, 0, 0]"] ;
674 -> 675 ;
676 [label="gini = 0.0\nsamples = 1\nvalue = [0, 0, 0, 1, 0, 0, 0]"] ;
674 -> 676 ;
677 [label="gini = 0.0\nsamples = 1\nvalue = [0, 1, 0, 0, 0, 0, 0]"] ;
671 -> 677 ;
678 [label="alcohol <= 9.75\ngini = 0.5195\nsamples = 145\nvalue = [1, 8, 89, 46, 1, 0, 0]"] ;
660 -> 678 ;
679 [label="density <= 0.9951\ngini = 0.5038\nsamples = 139\nvalue = [1, 8, 89, 40, 1, 0, 0]"] ;
678 -> 679 ;
680 [label="gini = 0.0\nsamples = 4\nvalue = [0, 0, 0, 4, 0, 0, 0]"] ;
679 -> 680 ;
681 [label="total sulfur dioxide <= 140.0\ngini = 0.4906\nsamples = 135\nvalue = [1, 8, 89, 36, 1, 0, 0]"] ;
679 -> 681 ;
682 [label="total sulfur dioxide <= 112.5\ngini = 0.6389\nsamples = 12\nvalue = [1, 5, 5, 1, 0, 0, 0]"] ;
681 -> 682 ;
683 [label="gini = 0.0\nsamples = 3\nvalue = [0, 0, 3, 0, 0, 0, 0]"] ;
682 -> 683 ;
684 [label="free sulfur dioxide <= 21.0\ngini = 0.6173\nsamples = 9\nvalue = [1, 5, 2, 1, 0, 0, 0]"] ;
682 -> 684 ;
685 [label="free sulfur dioxide <= 9.5\ngini = 0.2778\nsamples = 6\nvalue = [1, 5, 0, 0, 0, 0, 0]"] ;
684 -> 685 ;
686 [label="gini = 0.0\nsamples = 1\nvalue = [1, 0, 0, 0, 0, 0, 0]"] ;
685 -> 686 ;
687 [label="gini = 0.0\nsamples = 5\nvalue = [0, 5, 0, 0, 0, 0, 0]"] ;
685 -> 687 ;
688 [label="pH <= 3.12\ngini = 0.4444\nsamples = 3\nvalue = [0, 0, 2, 1, 0, 0, 0]"] ;
684 -> 688 ;
689 [label="gini = 0.0\nsamples = 1\nvalue = [0, 0, 0, 1, 0, 0, 0]"] ;
688 -> 689 ;
690 [label="gini = 0.0\nsamples = 2\nvalue = [0, 0, 2, 0, 0, 0, 0]"] ;
688 -> 690 ;
691 [label="sulphates <= 0.485\ngini = 0.452\nsamples = 123\nvalue = [0, 3, 84, 35, 1, 0, 0]"] ;
681 -> 691 ;
692 [label="total sulfur dioxide <= 157.0\ngini = 0.4959\nsamples = 22\nvalue = [0, 0, 10, 12, 0, 0, 0]"] ;
691 -> 692 ;
693 [label="chlorides <= 0.0435\ngini = 0.1975\nsamples = 9\nvalue = [0, 0, 1, 8, 0, 0, 0]"] ;
692 -> 693 ;
694 [label="gini = 0.0\nsamples = 1\nvalue = [0, 0, 1, 0, 0, 0, 0]"] ;
693 -> 694 ;
695 [label="gini = 0.0\nsamples = 8\nvalue = [0, 0, 0, 8, 0, 0, 0]"] ;
693 -> 695 ;
696 [label="density <= 0.9981\ngini = 0.426\nsamples = 13\nvalue = [0, 0, 9, 4, 0, 0, 0]"] ;
692 -> 696 ;
697 [label="gini = 0.0\nsamples = 8\nvalue = [0, 0, 8, 0, 0, 0, 0]"] ;
696 -> 697 ;
698 [label="pH <= 3.17\ngini = 0.32\nsamples = 5\nvalue = [0, 0, 1, 4, 0, 0, 0]"] ;
696 -> 698 ;
699 [label="gini = 0.0\nsamples = 4\nvalue = [0, 0, 0, 4, 0, 0, 0]"] ;
698 -> 699 ;
700 [label="gini = 0.0\nsamples = 1\nvalue = [0, 0, 1, 0, 0, 0, 0]"] ;
698 -> 700 ;
701 [label="chlorides <= 0.0415\ngini = 0.4104\nsamples = 101\nvalue = [0, 3, 74, 23, 1, 0, 0]"] ;
691 -> 701 ;
702 [label="gini = 0.0\nsamples = 2\nvalue = [0, 2, 0, 0, 0, 0, 0]"] ;
701 -> 702 ;
703 [label="total sulfur dioxide <= 220.5\ngini = 0.3871\nsamples = 99\nvalue = [0, 1, 74, 23, 1, 0, 0]"] ;
701 -> 703 ;
704 [label="fixed acidity <= 6.35\ngini = 0.3216\nsamples = 81\nvalue = [0, 1, 65, 15, 0, 0, 0]"] ;
703 -> 704 ;
705 [label="free sulfur dioxide <= 51.5\ngini = 0.535\nsamples = 20\nvalue = [0, 1, 11, 8, 0, 0, 0]"] ;
704 -> 705 ;
706 [label="citric acid <= 0.245\ngini = 0.5511\nsamples = 15\nvalue = [0, 1, 6, 8, 0, 0, 0]"] ;
705 -> 706 ;
707 [label="gini = 0.5312\nsamples = 8\nvalue = [0, 1, 5, 2, 0, 0, 0]"] ;
706 -> 707 ;
708 [label="gini = 0.2449\nsamples = 7\nvalue = [0, 0, 1, 6, 0, 0, 0]"] ;
706 -> 708 ;
709 [label="gini = 0.0\nsamples = 5\nvalue = [0, 0, 5, 0, 0, 0, 0]"] ;
705 -> 709 ;
710 [label="fixed acidity <= 8.35\ngini = 0.2032\nsamples = 61\nvalue = [0, 0, 54, 7, 0, 0, 0]"] ;
704 -> 710 ;
711 [label="free sulfur dioxide <= 39.5\ngini = 0.1551\nsamples = 59\nvalue = [0, 0, 54, 5, 0, 0, 0]"] ;
710 -> 711 ;
712 [label="gini = 0.3512\nsamples = 22\nvalue = [0, 0, 17, 5, 0, 0, 0]"] ;
711 -> 712 ;
713 [label="gini = 0.0\nsamples = 37\nvalue = [0, 0, 37, 0, 0, 0, 0]"] ;
711 -> 713 ;
714 [label="gini = 0.0\nsamples = 2\nvalue = [0, 0, 0, 2, 0, 0, 0]"] ;
710 -> 714 ;
715 [label="chlorides <= 0.0585\ngini = 0.5494\nsamples = 18\nvalue = [0, 0, 9, 8, 1, 0, 0]"] ;
703 -> 715 ;
716 [label="alcohol <= 9.05\ngini = 0.5408\nsamples = 14\nvalue = [0, 0, 5, 8, 1, 0, 0]"] ;
715 -> 716 ;
717 [label="residual sugar <= 11.75\ngini = 0.5312\nsamples = 8\nvalue = [0, 0, 5, 2, 1, 0, 0]"] ;
716 -> 717 ;
718 [label="gini = 0.0\nsamples = 5\nvalue = [0, 0, 5, 0, 0, 0, 0]"] ;
717 -> 718 ;
719 [label="gini = 0.4444\nsamples = 3\nvalue = [0, 0, 0, 2, 1, 0, 0]"] ;
717 -> 719 ;
720 [label="gini = 0.0\nsamples = 6\nvalue = [0, 0, 0, 6, 0, 0, 0]"] ;
716 -> 720 ;
721 [label="gini = 0.0\nsamples = 4\nvalue = [0, 0, 4, 0, 0, 0, 0]"] ;
715 -> 721 ;
722 [label="gini = 0.0\nsamples = 6\nvalue = [0, 0, 0, 6, 0, 0, 0]"] ;
678 -> 722 ;
723 [label="free sulfur dioxide <= 11.0\ngini = 0.5695\nsamples = 47\nvalue = [1, 14, 27, 5, 0, 0, 0]"] ;
569 -> 723 ;
724 [label="gini = 0.0\nsamples = 5\nvalue = [0, 5, 0, 0, 0, 0, 0]"] ;
723 -> 724 ;
725 [label="total sulfur dioxide <= 79.5\ngini = 0.5261\nsamples = 42\nvalue = [1, 9, 27, 5, 0, 0, 0]"] ;
723 -> 725 ;
726 [label="gini = 0.0\nsamples = 2\nvalue = [0, 2, 0, 0, 0, 0, 0]"] ;
725 -> 726 ;
727 [label="sulphates <= 0.565\ngini = 0.4975\nsamples = 40\nvalue = [1, 7, 27, 5, 0, 0, 0]"] ;
725 -> 727 ;
728 [label="fixed acidity <= 8.65\ngini = 0.3889\nsamples = 30\nvalue = [1, 4, 23, 2, 0, 0, 0]"] ;
727 -> 728 ;
729 [label="pH <= 3.37\ngini = 0.3472\nsamples = 29\nvalue = [0, 4, 23, 2, 0, 0, 0]"] ;
728 -> 729 ;
730 [label="chlorides <= 0.0295\ngini = 0.3087\nsamples = 28\nvalue = [0, 3, 23, 2, 0, 0, 0]"] ;
729 -> 730 ;
731 [label="gini = 0.0\nsamples = 1\nvalue = [0, 1, 0, 0, 0, 0, 0]"] ;
730 -> 731 ;
732 [label="density <= 0.9973\ngini = 0.2634\nsamples = 27\nvalue = [0, 2, 23, 2, 0, 0, 0]"] ;
730 -> 732 ;
733 [label="alcohol <= 9.65\ngini = 0.1626\nsamples = 23\nvalue = [0, 1, 21, 1, 0, 0, 0]"] ;
732 -> 733 ;
734 [label="total sulfur dioxide <= 92.5\ngini = 0.0907\nsamples = 21\nvalue = [0, 0, 20, 1, 0, 0, 0]"] ;
733 -> 734 ;
735 [label="sulphates <= 0.355\ngini = 0.4444\nsamples = 3\nvalue = [0, 0, 2, 1, 0, 0, 0]"] ;
734 -> 735 ;
736 [label="gini = 0.0\nsamples = 1\nvalue = [0, 0, 0, 1, 0, 0, 0]"] ;
735 -> 736 ;
737 [label="gini = 0.0\nsamples = 2\nvalue = [0, 0, 2, 0, 0, 0, 0]"] ;
735 -> 737 ;
738 [label="gini = 0.0\nsamples = 18\nvalue = [0, 0, 18, 0, 0, 0, 0]"] ;
734 -> 738 ;
739 [label="alcohol <= 9.75\ngini = 0.5\nsamples = 2\nvalue = [0, 1, 1, 0, 0, 0, 0]"] ;
733 -> 739 ;
740 [label="gini = 0.0\nsamples = 1\nvalue = [0, 1, 0, 0, 0, 0, 0]"] ;
739 -> 740 ;
741 [label="gini = 0.0\nsamples = 1\nvalue = [0, 0, 1, 0, 0, 0, 0]"] ;
739 -> 741 ;
742 [label="residual sugar <= 12.3\ngini = 0.625\nsamples = 4\nvalue = [0, 1, 2, 1, 0, 0, 0]"] ;
732 -> 742 ;
743 [label="residual sugar <= 11.2\ngini = 0.5\nsamples = 2\nvalue = [0, 1, 0, 1, 0, 0, 0]"] ;
742 -> 743 ;
744 [label="gini = 0.0\nsamples = 1\nvalue = [0, 1, 0, 0, 0, 0, 0]"] ;
743 -> 744 ;
745 [label="gini = 0.0\nsamples = 1\nvalue = [0, 0, 0, 1, 0, 0, 0]"] ;
743 -> 745 ;
746 [label="gini = 0.0\nsamples = 2\nvalue = [0, 0, 2, 0, 0, 0, 0]"] ;
742 -> 746 ;
747 [label="gini = 0.0\nsamples = 1\nvalue = [0, 1, 0, 0, 0, 0, 0]"] ;
729 -> 747 ;
748 [label="gini = 0.0\nsamples = 1\nvalue = [1, 0, 0, 0, 0, 0, 0]"] ;
728 -> 748 ;
749 [label="chlorides <= 0.0445\ngini = 0.66\nsamples = 10\nvalue = [0, 3, 4, 3, 0, 0, 0]"] ;
727 -> 749 ;
750 [label="free sulfur dioxide <= 61.5\ngini = 0.375\nsamples = 4\nvalue = [0, 1, 3, 0, 0, 0, 0]"] ;
749 -> 750 ;
751 [label="gini = 0.0\nsamples = 3\nvalue = [0, 0, 3, 0, 0, 0, 0]"] ;
750 -> 751 ;
752 [label="gini = 0.0\nsamples = 1\nvalue = [0, 1, 0, 0, 0, 0, 0]"] ;
750 -> 752 ;
753 [label="sulphates <= 0.64\ngini = 0.6111\nsamples = 6\nvalue = [0, 2, 1, 3, 0, 0, 0]"] ;
749 -> 753 ;
754 [label="pH <= 3.02\ngini = 0.48\nsamples = 5\nvalue = [0, 2, 0, 3, 0, 0, 0]"] ;
753 -> 754 ;
755 [label="gini = 0.0\nsamples = 2\nvalue = [0, 0, 0, 2, 0, 0, 0]"] ;
754 -> 755 ;
756 [label="citric acid <= 0.08\ngini = 0.4444\nsamples = 3\nvalue = [0, 2, 0, 1, 0, 0, 0]"] ;
754 -> 756 ;
757 [label="gini = 0.0\nsamples = 1\nvalue = [0, 0, 0, 1, 0, 0, 0]"] ;
756 -> 757 ;
758 [label="gini = 0.0\nsamples = 2\nvalue = [0, 2, 0, 0, 0, 0, 0]"] ;
756 -> 758 ;
759 [label="gini = 0.0\nsamples = 1\nvalue = [0, 0, 1, 0, 0, 0, 0]"] ;
753 -> 759 ;
760 [label="gini = 0.0\nsamples = 4\nvalue = [0, 0, 0, 4, 0, 0, 0]"] ;
568 -> 760 ;
761 [label="free sulfur dioxide <= 22.5\ngini = 0.6213\nsamples = 396\nvalue = [2, 27, 152, 187, 24, 3, 1]"] ;
365 -> 761 ;
762 [label="total sulfur dioxide <= 58.0\ngini = 0.6307\nsamples = 110\nvalue = [1, 15, 56, 33, 4, 1, 0]"] ;
761 -> 762 ;
763 [label="volatile acidity <= 0.31\ngini = 0.6122\nsamples = 7\nvalue = [1, 3, 0, 3, 0, 0, 0]"] ;
762 -> 763 ;
764 [label="gini = 0.0\nsamples = 3\nvalue = [0, 0, 0, 3, 0, 0, 0]"] ;
763 -> 764 ;
765 [label="sulphates <= 0.525\ngini = 0.375\nsamples = 4\nvalue = [1, 3, 0, 0, 0, 0, 0]"] ;
763 -> 765 ;
766 [label="gini = 0.0\nsamples = 3\nvalue = [0, 3, 0, 0, 0, 0, 0]"] ;
765 -> 766 ;
767 [label="gini = 0.0\nsamples = 1\nvalue = [1, 0, 0, 0, 0, 0, 0]"] ;
765 -> 767 ;
768 [label="free sulfur dioxide <= 13.5\ngini = 0.6044\nsamples = 103\nvalue = [0, 12, 56, 30, 4, 1, 0]"] ;
762 -> 768 ;
769 [label="chlorides <= 0.045\ngini = 0.5328\nsamples = 31\nvalue = [0, 6, 20, 2, 3, 0, 0]"] ;
768 -> 769 ;
770 [label="total sulfur dioxide <= 85.5\ngini = 0.3704\nsamples = 18\nvalue = [0, 0, 14, 2, 2, 0, 0]"] ;
769 -> 770 ;
771 [label="gini = 0.0\nsamples = 11\nvalue = [0, 0, 11, 0, 0, 0, 0]"] ;
770 -> 771 ;
772 [label="sulphates <= 0.455\ngini = 0.6531\nsamples = 7\nvalue = [0, 0, 3, 2, 2, 0, 0]"] ;
770 -> 772 ;
773 [label="gini = 0.0\nsamples = 3\nvalue = [0, 0, 3, 0, 0, 0, 0]"] ;
772 -> 773 ;
774 [label="pH <= 3.26\ngini = 0.5\nsamples = 4\nvalue = [0, 0, 0, 2, 2, 0, 0]"] ;
772 -> 774 ;
775 [label="gini = 0.0\nsamples = 2\nvalue = [0, 0, 0, 2, 0, 0, 0]"] ;
774 -> 775 ;
776 [label="gini = 0.0\nsamples = 2\nvalue = [0, 0, 0, 0, 2, 0, 0]"] ;
774 -> 776 ;
777 [label="free sulfur dioxide <= 9.5\ngini = 0.568\nsamples = 13\nvalue = [0, 6, 6, 0, 1, 0, 0]"] ;
769 -> 777 ;
778 [label="pH <= 3.3\ngini = 0.449\nsamples = 7\nvalue = [0, 5, 1, 0, 1, 0, 0]"] ;
777 -> 778 ;
779 [label="chlorides <= 0.1605\ngini = 0.2778\nsamples = 6\nvalue = [0, 5, 1, 0, 0, 0, 0]"] ;
778 -> 779 ;
780 [label="gini = 0.0\nsamples = 5\nvalue = [0, 5, 0, 0, 0, 0, 0]"] ;
779 -> 780 ;
781 [label="gini = 0.0\nsamples = 1\nvalue = [0, 0, 1, 0, 0, 0, 0]"] ;
779 -> 781 ;
782 [label="gini = 0.0\nsamples = 1\nvalue = [0, 0, 0, 0, 1, 0, 0]"] ;
778 -> 782 ;
783 [label="total sulfur dioxide <= 167.5\ngini = 0.2778\nsamples = 6\nvalue = [0, 1, 5, 0, 0, 0, 0]"] ;
777 -> 783 ;
784 [label="gini = 0.0\nsamples = 5\nvalue = [0, 0, 5, 0, 0, 0, 0]"] ;
783 -> 784 ;
785 [label="gini = 0.0\nsamples = 1\nvalue = [0, 1, 0, 0, 0, 0, 0]"] ;
783 -> 785 ;
786 [label="density <= 0.9919\ngini = 0.5914\nsamples = 72\nvalue = [0, 6, 36, 28, 1, 1, 0]"] ;
768 -> 786 ;
787 [label="gini = 0.0\nsamples = 5\nvalue = [0, 0, 0, 5, 0, 0, 0]"] ;
786 -> 787 ;
788 [label="fixed acidity <= 6.45\ngini = 0.585\nsamples = 67\nvalue = [0, 6, 36, 23, 1, 1, 0]"] ;
786 -> 788 ;
789 [label="residual sugar <= 1.35\ngini = 0.375\nsamples = 24\nvalue = [0, 0, 18, 6, 0, 0, 0]"] ;
788 -> 789 ;
790 [label="gini = 0.0\nsamples = 2\nvalue = [0, 0, 0, 2, 0, 0, 0]"] ;
789 -> 790 ;
791 [label="density <= 0.9963\ngini = 0.2975\nsamples = 22\nvalue = [0, 0, 18, 4, 0, 0, 0]"] ;
789 -> 791 ;
792 [label="citric acid <= 0.475\ngini = 0.18\nsamples = 20\nvalue = [0, 0, 18, 2, 0, 0, 0]"] ;
791 -> 792 ;
793 [label="citric acid <= 0.13\ngini = 0.0997\nsamples = 19\nvalue = [0, 0, 18, 1, 0, 0, 0]"] ;
792 -> 793 ;
794 [label="citric acid <= 0.065\ngini = 0.5\nsamples = 2\nvalue = [0, 0, 1, 1, 0, 0, 0]"] ;
793 -> 794 ;
795 [label="gini = 0.0\nsamples = 1\nvalue = [0, 0, 1, 0, 0, 0, 0]"] ;
794 -> 795 ;
796 [label="gini = 0.0\nsamples = 1\nvalue = [0, 0, 0, 1, 0, 0, 0]"] ;
794 -> 796 ;
797 [label="gini = 0.0\nsamples = 17\nvalue = [0, 0, 17, 0, 0, 0, 0]"] ;
793 -> 797 ;
798 [label="gini = 0.0\nsamples = 1\nvalue = [0, 0, 0, 1, 0, 0, 0]"] ;
792 -> 798 ;
799 [label="gini = 0.0\nsamples = 2\nvalue = [0, 0, 0, 2, 0, 0, 0]"] ;
791 -> 799 ;
800 [label="alcohol <= 10.15\ngini = 0.6479\nsamples = 43\nvalue = [0, 6, 18, 17, 1, 1, 0]"] ;
788 -> 800 ;
801 [label="total sulfur dioxide <= 86.5\ngini = 0.519\nsamples = 17\nvalue = [0, 3, 3, 11, 0, 0, 0]"] ;
800 -> 801 ;
802 [label="gini = 0.0\nsamples = 2\nvalue = [0, 2, 0, 0, 0, 0, 0]"] ;
801 -> 802 ;
803 [label="density <= 0.9941\ngini = 0.4178\nsamples = 15\nvalue = [0, 1, 3, 11, 0, 0, 0]"] ;
801 -> 803 ;
804 [label="citric acid <= 0.385\ngini = 0.48\nsamples = 5\nvalue = [0, 0, 3, 2, 0, 0, 0]"] ;
803 -> 804 ;
805 [label="gini = 0.0\nsamples = 3\nvalue = [0, 0, 3, 0, 0, 0, 0]"] ;
804 -> 805 ;
806 [label="gini = 0.0\nsamples = 2\nvalue = [0, 0, 0, 2, 0, 0, 0]"] ;
804 -> 806 ;
807 [label="citric acid <= 0.72\ngini = 0.18\nsamples = 10\nvalue = [0, 1, 0, 9, 0, 0, 0]"] ;
803 -> 807 ;
808 [label="gini = 0.0\nsamples = 9\nvalue = [0, 0, 0, 9, 0, 0, 0]"] ;
807 -> 808 ;
809 [label="gini = 0.0\nsamples = 1\nvalue = [0, 1, 0, 0, 0, 0, 0]"] ;
807 -> 809 ;
810 [label="fixed acidity <= 6.75\ngini = 0.5976\nsamples = 26\nvalue = [0, 3, 15, 6, 1, 1, 0]"] ;
800 -> 810 ;
811 [label="pH <= 3.15\ngini = 0.32\nsamples = 5\nvalue = [0, 0, 1, 4, 0, 0, 0]"] ;
810 -> 811 ;
812 [label="gini = 0.0\nsamples = 1\nvalue = [0, 0, 1, 0, 0, 0, 0]"] ;
811 -> 812 ;
813 [label="gini = 0.0\nsamples = 4\nvalue = [0, 0, 0, 4, 0, 0, 0]"] ;
811 -> 813 ;
814 [label="total sulfur dioxide <= 72.0\ngini = 0.5215\nsamples = 21\nvalue = [0, 3, 14, 2, 1, 1, 0]"] ;
810 -> 814 ;
815 [label="total sulfur dioxide <= 60.0\ngini = 0.4444\nsamples = 3\nvalue = [0, 2, 0, 1, 0, 0, 0]"] ;
814 -> 815 ;
816 [label="gini = 0.0\nsamples = 1\nvalue = [0, 0, 0, 1, 0, 0, 0]"] ;
815 -> 816 ;
817 [label="gini = 0.0\nsamples = 2\nvalue = [0, 2, 0, 0, 0, 0, 0]"] ;
815 -> 817 ;
818 [label="volatile acidity <= 0.245\ngini = 0.3827\nsamples = 18\nvalue = [0, 1, 14, 1, 1, 1, 0]"] ;
814 -> 818 ;
819 [label="pH <= 3.27\ngini = 0.5\nsamples = 2\nvalue = [0, 0, 0, 0, 1, 1, 0]"] ;
818 -> 819 ;
820 [label="gini = 0.0\nsamples = 1\nvalue = [0, 0, 0, 0, 0, 1, 0]"] ;
819 -> 820 ;
821 [label="gini = 0.0\nsamples = 1\nvalue = [0, 0, 0, 0, 1, 0, 0]"] ;
819 -> 821 ;
822 [label="volatile acidity <= 0.265\ngini = 0.2266\nsamples = 16\nvalue = [0, 1, 14, 1, 0, 0, 0]"] ;
818 -> 822 ;
823 [label="total sulfur dioxide <= 161.0\ngini = 0.5\nsamples = 2\nvalue = [0, 0, 1, 1, 0, 0, 0]"] ;
822 -> 823 ;
824 [label="gini = 0.0\nsamples = 1\nvalue = [0, 0, 1, 0, 0, 0, 0]"] ;
823 -> 824 ;
825 [label="gini = 0.0\nsamples = 1\nvalue = [0, 0, 0, 1, 0, 0, 0]"] ;
823 -> 825 ;
826 [label="citric acid <= 0.49\ngini = 0.1327\nsamples = 14\nvalue = [0, 1, 13, 0, 0, 0, 0]"] ;
822 -> 826 ;
827 [label="gini = 0.0\nsamples = 12\nvalue = [0, 0, 12, 0, 0, 0, 0]"] ;
826 -> 827 ;
828 [label="chlorides <= 0.047\ngini = 0.5\nsamples = 2\nvalue = [0, 1, 1, 0, 0, 0, 0]"] ;
826 -> 828 ;
829 [label="gini = 0.0\nsamples = 1\nvalue = [0, 0, 1, 0, 0, 0, 0]"] ;
828 -> 829 ;
830 [label="gini = 0.0\nsamples = 1\nvalue = [0, 1, 0, 0, 0, 0, 0]"] ;
828 -> 830 ;
831 [label="total sulfur dioxide <= 167.5\ngini = 0.5907\nsamples = 286\nvalue = [1, 12, 96, 154, 20, 2, 1]"] ;
761 -> 831 ;
832 [label="sulphates <= 0.545\ngini = 0.5474\nsamples = 189\nvalue = [0, 4, 49, 116, 17, 2, 1]"] ;
831 -> 832 ;
833 [label="pH <= 3.31\ngini = 0.5806\nsamples = 130\nvalue = [0, 3, 44, 71, 10, 1, 1]"] ;
832 -> 833 ;
834 [label="alcohol <= 10.35\ngini = 0.577\nsamples = 110\nvalue = [0, 3, 44, 56, 6, 0, 1]"] ;
833 -> 834 ;
835 [label="volatile acidity <= 0.255\ngini = 0.5729\nsamples = 72\nvalue = [0, 3, 36, 30, 3, 0, 0]"] ;
834 -> 835 ;
836 [label="free sulfur dioxide <= 34.5\ngini = 0.4028\nsamples = 12\nvalue = [0, 0, 2, 9, 1, 0, 0]"] ;
835 -> 836 ;
837 [label="gini = 0.0\nsamples = 5\nvalue = [0, 0, 0, 5, 0, 0, 0]"] ;
836 -> 837 ;
838 [label="density <= 0.9947\ngini = 0.5714\nsamples = 7\nvalue = [0, 0, 2, 4, 1, 0, 0]"] ;
836 -> 838 ;
839 [label="sulphates <= 0.49\ngini = 0.4444\nsamples = 3\nvalue = [0, 0, 2, 0, 1, 0, 0]"] ;
838 -> 839 ;
840 [label="gini = 0.0\nsamples = 2\nvalue = [0, 0, 2, 0, 0, 0, 0]"] ;
839 -> 840 ;
841 [label="gini = 0.0\nsamples = 1\nvalue = [0, 0, 0, 0, 1, 0, 0]"] ;
839 -> 841 ;
842 [label="gini = 0.0\nsamples = 4\nvalue = [0, 0, 0, 4, 0, 0, 0]"] ;
838 -> 842 ;
843 [label="citric acid <= 0.055\ngini = 0.5528\nsamples = 60\nvalue = [0, 3, 34, 21, 2, 0, 0]"] ;
835 -> 843 ;
844 [label="gini = 0.0\nsamples = 2\nvalue = [0, 2, 0, 0, 0, 0, 0]"] ;
843 -> 844 ;
845 [label="pH <= 3.135\ngini = 0.5238\nsamples = 58\nvalue = [0, 1, 34, 21, 2, 0, 0]"] ;
843 -> 845 ;
846 [label="pH <= 3.105\ngini = 0.5207\nsamples = 13\nvalue = [0, 0, 4, 8, 1, 0, 0]"] ;
845 -> 846 ;
847 [label="fixed acidity <= 7.85\ngini = 0.375\nsamples = 4\nvalue = [0, 0, 3, 0, 1, 0, 0]"] ;
846 -> 847 ;
848 [label="gini = 0.0\nsamples = 3\nvalue = [0, 0, 3, 0, 0, 0, 0]"] ;
847 -> 848 ;
849 [label="gini = 0.0\nsamples = 1\nvalue = [0, 0, 0, 0, 1, 0, 0]"] ;
847 -> 849 ;
850 [label="free sulfur dioxide <= 51.5\ngini = 0.1975\nsamples = 9\nvalue = [0, 0, 1, 8, 0, 0, 0]"] ;
846 -> 850 ;
851 [label="gini = 0.0\nsamples = 8\nvalue = [0, 0, 0, 8, 0, 0, 0]"] ;
850 -> 851 ;
852 [label="gini = 0.0\nsamples = 1\nvalue = [0, 0, 1, 0, 0, 0, 0]"] ;
850 -> 852 ;
853 [label="volatile acidity <= 0.395\ngini = 0.4711\nsamples = 45\nvalue = [0, 1, 30, 13, 1, 0, 0]"] ;
845 -> 853 ;
854 [label="total sulfur dioxide <= 140.0\ngini = 0.3981\nsamples = 36\nvalue = [0, 1, 27, 7, 1, 0, 0]"] ;
853 -> 854 ;
855 [label="density <= 0.9963\ngini = 0.5926\nsamples = 18\nvalue = [0, 1, 9, 7, 1, 0, 0]"] ;
854 -> 855 ;
856 [label="density <= 0.9946\ngini = 0.6036\nsamples = 13\nvalue = [0, 1, 4, 7, 1, 0, 0]"] ;
855 -> 856 ;
857 [label="density <= 0.9922\ngini = 0.5714\nsamples = 7\nvalue = [0, 1, 4, 2, 0, 0, 0]"] ;
856 -> 857 ;
858 [label="gini = 0.0\nsamples = 2\nvalue = [0, 0, 0, 2, 0, 0, 0]"] ;
857 -> 858 ;
859 [label="fixed acidity <= 6.0\ngini = 0.32\nsamples = 5\nvalue = [0, 1, 4, 0, 0, 0, 0]"] ;
857 -> 859 ;
860 [label="gini = 0.0\nsamples = 1\nvalue = [0, 1, 0, 0, 0, 0, 0]"] ;
859 -> 860 ;
861 [label="gini = 0.0\nsamples = 4\nvalue = [0, 0, 4, 0, 0, 0, 0]"] ;
859 -> 861 ;
862 [label="sulphates <= 0.415\ngini = 0.2778\nsamples = 6\nvalue = [0, 0, 0, 5, 1, 0, 0]"] ;
856 -> 862 ;
863 [label="gini = 0.0\nsamples = 1\nvalue = [0, 0, 0, 0, 1, 0, 0]"] ;
862 -> 863 ;
864 [label="gini = 0.0\nsamples = 5\nvalue = [0, 0, 0, 5, 0, 0, 0]"] ;
862 -> 864 ;
865 [label="gini = 0.0\nsamples = 5\nvalue = [0, 0, 5, 0, 0, 0, 0]"] ;
855 -> 865 ;
866 [label="gini = 0.0\nsamples = 18\nvalue = [0, 0, 18, 0, 0, 0, 0]"] ;
854 -> 866 ;
867 [label="citric acid <= 0.25\ngini = 0.4444\nsamples = 9\nvalue = [0, 0, 3, 6, 0, 0, 0]"] ;
853 -> 867 ;
868 [label="gini = 0.0\nsamples = 5\nvalue = [0, 0, 0, 5, 0, 0, 0]"] ;
867 -> 868 ;
869 [label="residual sugar <= 3.95\ngini = 0.375\nsamples = 4\nvalue = [0, 0, 3, 1, 0, 0, 0]"] ;
867 -> 869 ;
870 [label="gini = 0.0\nsamples = 1\nvalue = [0, 0, 0, 1, 0, 0, 0]"] ;
869 -> 870 ;
871 [label="gini = 0.0\nsamples = 3\nvalue = [0, 0, 3, 0, 0, 0, 0]"] ;
869 -> 871 ;
872 [label="fixed acidity <= 8.65\ngini = 0.4806\nsamples = 38\nvalue = [0, 0, 8, 26, 3, 0, 1]"] ;
834 -> 872 ;
873 [label="sulphates <= 0.51\ngini = 0.4529\nsamples = 37\nvalue = [0, 0, 8, 26, 3, 0, 0]"] ;
872 -> 873 ;
874 [label="density <= 0.9916\ngini = 0.3893\nsamples = 33\nvalue = [0, 0, 6, 25, 2, 0, 0]"] ;
873 -> 874 ;
875 [label="gini = 0.0\nsamples = 1\nvalue = [0, 0, 1, 0, 0, 0, 0]"] ;
874 -> 875 ;
876 [label="total sulfur dioxide <= 144.5\ngini = 0.3613\nsamples = 32\nvalue = [0, 0, 5, 25, 2, 0, 0]"] ;
874 -> 876 ;
877 [label="residual sugar <= 10.8\ngini = 0.4898\nsamples = 21\nvalue = [0, 0, 5, 14, 2, 0, 0]"] ;
876 -> 877 ;
878 [label="citric acid <= 0.275\ngini = 0.602\nsamples = 14\nvalue = [0, 0, 5, 7, 2, 0, 0]"] ;
877 -> 878 ;
879 [label="density <= 0.9942\ngini = 0.48\nsamples = 5\nvalue = [0, 0, 3, 0, 2, 0, 0]"] ;
878 -> 879 ;
880 [label="gini = 0.0\nsamples = 2\nvalue = [0, 0, 0, 0, 2, 0, 0]"] ;
879 -> 880 ;
881 [label="gini = 0.0\nsamples = 3\nvalue = [0, 0, 3, 0, 0, 0, 0]"] ;
879 -> 881 ;
882 [label="volatile acidity <= 0.255\ngini = 0.3457\nsamples = 9\nvalue = [0, 0, 2, 7, 0, 0, 0]"] ;
878 -> 882 ;
883 [label="gini = 0.0\nsamples = 2\nvalue = [0, 0, 2, 0, 0, 0, 0]"] ;
882 -> 883 ;
884 [label="gini = 0.0\nsamples = 7\nvalue = [0, 0, 0, 7, 0, 0, 0]"] ;
882 -> 884 ;
885 [label="gini = 0.0\nsamples = 7\nvalue = [0, 0, 0, 7, 0, 0, 0]"] ;
877 -> 885 ;
886 [label="gini = 0.0\nsamples = 11\nvalue = [0, 0, 0, 11, 0, 0, 0]"] ;
876 -> 886 ;
887 [label="pH <= 3.185\ngini = 0.625\nsamples = 4\nvalue = [0, 0, 2, 1, 1, 0, 0]"] ;
873 -> 887 ;
888 [label="gini = 0.0\nsamples = 2\nvalue = [0, 0, 2, 0, 0, 0, 0]"] ;
887 -> 888 ;
889 [label="citric acid <= 0.29\ngini = 0.5\nsamples = 2\nvalue = [0, 0, 0, 1, 1, 0, 0]"] ;
887 -> 889 ;
890 [label="gini = 0.0\nsamples = 1\nvalue = [0, 0, 0, 1, 0, 0, 0]"] ;
889 -> 890 ;
891 [label="gini = 0.0\nsamples = 1\nvalue = [0, 0, 0, 0, 1, 0, 0]"] ;
889 -> 891 ;
892 [label="gini = 0.0\nsamples = 1\nvalue = [0, 0, 0, 0, 0, 0, 1]"] ;
872 -> 892 ;
893 [label="volatile acidity <= 0.4125\ngini = 0.395\nsamples = 20\nvalue = [0, 0, 0, 15, 4, 1, 0]"] ;
833 -> 893 ;
894 [label="citric acid <= 0.415\ngini = 0.2901\nsamples = 18\nvalue = [0, 0, 0, 15, 2, 1, 0]"] ;
893 -> 894 ;
895 [label="chlorides <= 0.034\ngini = 0.2076\nsamples = 17\nvalue = [0, 0, 0, 15, 2, 0, 0]"] ;
894 -> 895 ;
896 [label="gini = 0.0\nsamples = 1\nvalue = [0, 0, 0, 0, 1, 0, 0]"] ;
895 -> 896 ;
897 [label="sulphates <= 0.505\ngini = 0.1172\nsamples = 16\nvalue = [0, 0, 0, 15, 1, 0, 0]"] ;
895 -> 897 ;
898 [label="gini = 0.0\nsamples = 11\nvalue = [0, 0, 0, 11, 0, 0, 0]"] ;
897 -> 898 ;
899 [label="sulphates <= 0.515\ngini = 0.32\nsamples = 5\nvalue = [0, 0, 0, 4, 1, 0, 0]"] ;
897 -> 899 ;
900 [label="gini = 0.0\nsamples = 1\nvalue = [0, 0, 0, 0, 1, 0, 0]"] ;
899 -> 900 ;
901 [label="gini = 0.0\nsamples = 4\nvalue = [0, 0, 0, 4, 0, 0, 0]"] ;
899 -> 901 ;
902 [label="gini = 0.0\nsamples = 1\nvalue = [0, 0, 0, 0, 0, 1, 0]"] ;
894 -> 902 ;
903 [label="gini = 0.0\nsamples = 2\nvalue = [0, 0, 0, 0, 2, 0, 0]"] ;
893 -> 903 ;
904 [label="fixed acidity <= 7.75\ngini = 0.3964\nsamples = 59\nvalue = [0, 1, 5, 45, 7, 1, 0]"] ;
832 -> 904 ;
905 [label="volatile acidity <= 0.51\ngini = 0.301\nsamples = 52\nvalue = [0, 1, 2, 43, 6, 0, 0]"] ;
904 -> 905 ;
906 [label="pH <= 2.97\ngini = 0.2737\nsamples = 51\nvalue = [0, 0, 2, 43, 6, 0, 0]"] ;
905 -> 906 ;
907 [label="gini = 0.0\nsamples = 1\nvalue = [0, 0, 0, 0, 1, 0, 0]"] ;
906 -> 907 ;
908 [label="pH <= 3.46\ngini = 0.2488\nsamples = 50\nvalue = [0, 0, 2, 43, 5, 0, 0]"] ;
906 -> 908 ;
909 [label="density <= 0.9972\ngini = 0.1994\nsamples = 46\nvalue = [0, 0, 2, 41, 3, 0, 0]"] ;
908 -> 909 ;
910 [label="fixed acidity <= 4.9\ngini = 0.1659\nsamples = 45\nvalue = [0, 0, 2, 41, 2, 0, 0]"] ;
909 -> 910 ;
911 [label="volatile acidity <= 0.335\ngini = 0.5\nsamples = 2\nvalue = [0, 0, 1, 1, 0, 0, 0]"] ;
910 -> 911 ;
912 [label="gini = 0.0\nsamples = 1\nvalue = [0, 0, 1, 0, 0, 0, 0]"] ;
911 -> 912 ;
913 [label="gini = 0.0\nsamples = 1\nvalue = [0, 0, 0, 1, 0, 0, 0]"] ;
911 -> 913 ;
914 [label="citric acid <= 0.48\ngini = 0.132\nsamples = 43\nvalue = [0, 0, 1, 40, 2, 0, 0]"] ;
910 -> 914 ;
915 [label="residual sugar <= 1.65\ngini = 0.0526\nsamples = 37\nvalue = [0, 0, 0, 36, 1, 0, 0]"] ;
914 -> 915 ;
916 [label="density <= 0.993\ngini = 0.18\nsamples = 10\nvalue = [0, 0, 0, 9, 1, 0, 0]"] ;
915 -> 916 ;
917 [label="gini = 0.0\nsamples = 8\nvalue = [0, 0, 0, 8, 0, 0, 0]"] ;
916 -> 917 ;
918 [label="total sulfur dioxide <= 148.5\ngini = 0.5\nsamples = 2\nvalue = [0, 0, 0, 1, 1, 0, 0]"] ;
916 -> 918 ;
919 [label="gini = 0.0\nsamples = 1\nvalue = [0, 0, 0, 0, 1, 0, 0]"] ;
918 -> 919 ;
920 [label="gini = 0.0\nsamples = 1\nvalue = [0, 0, 0, 1, 0, 0, 0]"] ;
918 -> 920 ;
921 [label="gini = 0.0\nsamples = 27\nvalue = [0, 0, 0, 27, 0, 0, 0]"] ;
915 -> 921 ;
922 [label="sulphates <= 0.785\ngini = 0.5\nsamples = 6\nvalue = [0, 0, 1, 4, 1, 0, 0]"] ;
914 -> 922 ;
923 [label="volatile acidity <= 0.27\ngini = 0.5\nsamples = 2\nvalue = [0, 0, 1, 0, 1, 0, 0]"] ;
922 -> 923 ;
924 [label="gini = 0.0\nsamples = 1\nvalue = [0, 0, 0, 0, 1, 0, 0]"] ;
923 -> 924 ;
925 [label="gini = 0.0\nsamples = 1\nvalue = [0, 0, 1, 0, 0, 0, 0]"] ;
923 -> 925 ;
926 [label="gini = 0.0\nsamples = 4\nvalue = [0, 0, 0, 4, 0, 0, 0]"] ;
922 -> 926 ;
927 [label="gini = 0.0\nsamples = 1\nvalue = [0, 0, 0, 0, 1, 0, 0]"] ;
909 -> 927 ;
928 [label="total sulfur dioxide <= 128.5\ngini = 0.5\nsamples = 4\nvalue = [0, 0, 0, 2, 2, 0, 0]"] ;
908 -> 928 ;
929 [label="gini = 0.0\nsamples = 2\nvalue = [0, 0, 0, 0, 2, 0, 0]"] ;
928 -> 929 ;
930 [label="gini = 0.0\nsamples = 2\nvalue = [0, 0, 0, 2, 0, 0, 0]"] ;
928 -> 930 ;
931 [label="gini = 0.0\nsamples = 1\nvalue = [0, 1, 0, 0, 0, 0, 0]"] ;
905 -> 931 ;
932 [label="residual sugar <= 1.5\ngini = 0.6939\nsamples = 7\nvalue = [0, 0, 3, 2, 1, 1, 0]"] ;
904 -> 932 ;
933 [label="gini = 0.0\nsamples = 3\nvalue = [0, 0, 3, 0, 0, 0, 0]"] ;
932 -> 933 ;
934 [label="total sulfur dioxide <= 148.0\ngini = 0.625\nsamples = 4\nvalue = [0, 0, 0, 2, 1, 1, 0]"] ;
932 -> 934 ;
935 [label="total sulfur dioxide <= 123.5\ngini = 0.5\nsamples = 2\nvalue = [0, 0, 0, 0, 1, 1, 0]"] ;
934 -> 935 ;
936 [label="gini = 0.0\nsamples = 1\nvalue = [0, 0, 0, 0, 0, 1, 0]"] ;
935 -> 936 ;
937 [label="gini = 0.0\nsamples = 1\nvalue = [0, 0, 0, 0, 1, 0, 0]"] ;
935 -> 937 ;
938 [label="gini = 0.0\nsamples = 2\nvalue = [0, 0, 0, 2, 0, 0, 0]"] ;
934 -> 938 ;
939 [label="fixed acidity <= 9.5\ngini = 0.6039\nsamples = 97\nvalue = [1, 8, 47, 38, 3, 0, 0]"] ;
831 -> 939 ;
940 [label="citric acid <= 0.15\ngini = 0.5746\nsamples = 93\nvalue = [1, 4, 47, 38, 3, 0, 0]"] ;
939 -> 940 ;
941 [label="gini = 0.0\nsamples = 8\nvalue = [0, 0, 8, 0, 0, 0, 0]"] ;
940 -> 941 ;
942 [label="chlorides <= 0.05\ngini = 0.586\nsamples = 85\nvalue = [1, 4, 39, 38, 3, 0, 0]"] ;
940 -> 942 ;
943 [label="fixed acidity <= 6.05\ngini = 0.5606\nsamples = 60\nvalue = [1, 2, 22, 33, 2, 0, 0]"] ;
942 -> 943 ;
944 [label="gini = 0.0\nsamples = 2\nvalue = [0, 0, 0, 0, 2, 0, 0]"] ;
943 -> 944 ;
945 [label="volatile acidity <= 0.37\ngini = 0.5309\nsamples = 58\nvalue = [1, 2, 22, 33, 0, 0, 0]"] ;
943 -> 945 ;
946 [label="sulphates <= 0.52\ngini = 0.4944\nsamples = 51\nvalue = [1, 1, 17, 32, 0, 0, 0]"] ;
945 -> 946 ;
947 [label="fixed acidity <= 7.55\ngini = 0.5382\nsamples = 24\nvalue = [0, 1, 12, 11, 0, 0, 0]"] ;
946 -> 947 ;
948 [label="free sulfur dioxide <= 110.25\ngini = 0.5\nsamples = 14\nvalue = [0, 1, 4, 9, 0, 0, 0]"] ;
947 -> 948 ;
949 [label="fixed acidity <= 6.85\ngini = 0.426\nsamples = 13\nvalue = [0, 0, 4, 9, 0, 0, 0]"] ;
948 -> 949 ;
950 [label="citric acid <= 0.205\ngini = 0.4938\nsamples = 9\nvalue = [0, 0, 4, 5, 0, 0, 0]"] ;
949 -> 950 ;
951 [label="gini = 0.0\nsamples = 3\nvalue = [0, 0, 0, 3, 0, 0, 0]"] ;
950 -> 951 ;
952 [label="pH <= 3.24\ngini = 0.4444\nsamples = 6\nvalue = [0, 0, 4, 2, 0, 0, 0]"] ;
950 -> 952 ;
953 [label="density <= 0.997\ngini = 0.4444\nsamples = 3\nvalue = [0, 0, 1, 2, 0, 0, 0]"] ;
952 -> 953 ;
954 [label="gini = 0.0\nsamples = 2\nvalue = [0, 0, 0, 2, 0, 0, 0]"] ;
953 -> 954 ;
955 [label="gini = 0.0\nsamples = 1\nvalue = [0, 0, 1, 0, 0, 0, 0]"] ;
953 -> 955 ;
956 [label="gini = 0.0\nsamples = 3\nvalue = [0, 0, 3, 0, 0, 0, 0]"] ;
952 -> 956 ;
957 [label="gini = 0.0\nsamples = 4\nvalue = [0, 0, 0, 4, 0, 0, 0]"] ;
949 -> 957 ;
958 [label="gini = 0.0\nsamples = 1\nvalue = [0, 1, 0, 0, 0, 0, 0]"] ;
948 -> 958 ;
959 [label="density <= 0.9972\ngini = 0.32\nsamples = 10\nvalue = [0, 0, 8, 2, 0, 0, 0]"] ;
947 -> 959 ;
960 [label="gini = 0.0\nsamples = 8\nvalue = [0, 0, 8, 0, 0, 0, 0]"] ;
959 -> 960 ;
961 [label="gini = 0.0\nsamples = 2\nvalue = [0, 0, 0, 2, 0, 0, 0]"] ;
959 -> 961 ;
962 [label="citric acid <= 0.225\ngini = 0.3594\nsamples = 27\nvalue = [1, 0, 5, 21, 0, 0, 0]"] ;
946 -> 962 ;
963 [label="free sulfur dioxide <= 41.0\ngini = 0.375\nsamples = 4\nvalue = [0, 0, 3, 1, 0, 0, 0]"] ;
962 -> 963 ;
964 [label="gini = 0.0\nsamples = 1\nvalue = [0, 0, 0, 1, 0, 0, 0]"] ;
963 -> 964 ;
965 [label="gini = 0.0\nsamples = 3\nvalue = [0, 0, 3, 0, 0, 0, 0]"] ;
963 -> 965 ;
966 [label="sulphates <= 0.69\ngini = 0.2344\nsamples = 23\nvalue = [1, 0, 2, 20, 0, 0, 0]"] ;
962 -> 966 ;
967 [label="free sulfur dioxide <= 180.5\ngini = 0.0907\nsamples = 21\nvalue = [1, 0, 0, 20, 0, 0, 0]"] ;
966 -> 967 ;
968 [label="gini = 0.0\nsamples = 20\nvalue = [0, 0, 0, 20, 0, 0, 0]"] ;
967 -> 968 ;
969 [label="gini = 0.0\nsamples = 1\nvalue = [1, 0, 0, 0, 0, 0, 0]"] ;
967 -> 969 ;
970 [label="gini = 0.0\nsamples = 2\nvalue = [0, 0, 2, 0, 0, 0, 0]"] ;
966 -> 970 ;
971 [label="pH <= 3.1\ngini = 0.449\nsamples = 7\nvalue = [0, 1, 5, 1, 0, 0, 0]"] ;
945 -> 971 ;
972 [label="density <= 0.995\ngini = 0.5\nsamples = 2\nvalue = [0, 1, 0, 1, 0, 0, 0]"] ;
971 -> 972 ;
973 [label="gini = 0.0\nsamples = 1\nvalue = [0, 1, 0, 0, 0, 0, 0]"] ;
972 -> 973 ;
974 [label="gini = 0.0\nsamples = 1\nvalue = [0, 0, 0, 1, 0, 0, 0]"] ;
972 -> 974 ;
975 [label="gini = 0.0\nsamples = 5\nvalue = [0, 0, 5, 0, 0, 0, 0]"] ;
971 -> 975 ;
976 [label="citric acid <= 0.25\ngini = 0.4896\nsamples = 25\nvalue = [0, 2, 17, 5, 1, 0, 0]"] ;
942 -> 976 ;
977 [label="gini = 0.0\nsamples = 3\nvalue = [0, 0, 0, 3, 0, 0, 0]"] ;
976 -> 977 ;
978 [label="citric acid <= 0.355\ngini = 0.3843\nsamples = 22\nvalue = [0, 2, 17, 2, 1, 0, 0]"] ;
976 -> 978 ;
979 [label="free sulfur dioxide <= 25.0\ngini = 0.1172\nsamples = 16\nvalue = [0, 1, 15, 0, 0, 0, 0]"] ;
978 -> 979 ;
980 [label="gini = 0.0\nsamples = 1\nvalue = [0, 1, 0, 0, 0, 0, 0]"] ;
979 -> 980 ;
981 [label="gini = 0.0\nsamples = 15\nvalue = [0, 0, 15, 0, 0, 0, 0]"] ;
979 -> 981 ;
982 [label="fixed acidity <= 7.0\ngini = 0.7222\nsamples = 6\nvalue = [0, 1, 2, 2, 1, 0, 0]"] ;
978 -> 982 ;
983 [label="alcohol <= 10.3\ngini = 0.625\nsamples = 4\nvalue = [0, 1, 2, 0, 1, 0, 0]"] ;
982 -> 983 ;
984 [label="gini = 0.0\nsamples = 2\nvalue = [0, 0, 2, 0, 0, 0, 0]"] ;
983 -> 984 ;
985 [label="chlorides <= 0.055\ngini = 0.5\nsamples = 2\nvalue = [0, 1, 0, 0, 1, 0, 0]"] ;
983 -> 985 ;
986 [label="gini = 0.0\nsamples = 1\nvalue = [0, 1, 0, 0, 0, 0, 0]"] ;
985 -> 986 ;
987 [label="gini = 0.0\nsamples = 1\nvalue = [0, 0, 0, 0, 1, 0, 0]"] ;
985 -> 987 ;
988 [label="gini = 0.0\nsamples = 2\nvalue = [0, 0, 0, 2, 0, 0, 0]"] ;
982 -> 988 ;
989 [label="gini = 0.0\nsamples = 4\nvalue = [0, 4, 0, 0, 0, 0, 0]"] ;
939 -> 989 ;
990 [label="alcohol <= 12.775\ngini = 0.6616\nsamples = 1420\nvalue = [7, 33, 159, 670, 443, 104, 4]"] ;
0 -> 990 [labeldistance=2.5, labelangle=-45, headlabel="False"] ;
991 [label="free sulfur dioxide <= 11.5\ngini = 0.6531\nsamples = 1274\nvalue = [7, 32, 155, 630, 367, 80, 3]"] ;
990 -> 991 ;
992 [label="volatile acidity <= 0.385\ngini = 0.7163\nsamples = 87\nvalue = [2, 20, 25, 33, 5, 2, 0]"] ;
991 -> 992 ;
993 [label="residual sugar <= 4.4\ngini = 0.678\nsamples = 69\nvalue = [1, 11, 19, 32, 5, 1, 0]"] ;
992 -> 993 ;
994 [label="density <= 0.9936\ngini = 0.593\nsamples = 44\nvalue = [1, 9, 9, 25, 0, 0, 0]"] ;
993 -> 994 ;
995 [label="sulphates <= 0.38\ngini = 0.5714\nsamples = 42\nvalue = [1, 7, 9, 25, 0, 0, 0]"] ;
994 -> 995 ;
996 [label="alcohol <= 11.9\ngini = 0.5694\nsamples = 12\nvalue = [0, 6, 1, 5, 0, 0, 0]"] ;
995 -> 996 ;
997 [label="sulphates <= 0.29\ngini = 0.2778\nsamples = 6\nvalue = [0, 5, 1, 0, 0, 0, 0]"] ;
996 -> 997 ;
998 [label="gini = 0.0\nsamples = 1\nvalue = [0, 0, 1, 0, 0, 0, 0]"] ;
997 -> 998 ;
999 [label="gini = 0.0\nsamples = 5\nvalue = [0, 5, 0, 0, 0, 0, 0]"] ;
997 -> 999 ;
1000 [label="fixed acidity <= 6.55\ngini = 0.2778\nsamples = 6\nvalue = [0, 1, 0, 5, 0, 0, 0]"] ;
996 -> 1000 ;
1001 [label="gini = 0.0\nsamples = 1\nvalue = [0, 1, 0, 0, 0, 0, 0]"] ;
1000 -> 1001 ;
1002 [label="gini = 0.0\nsamples = 5\nvalue = [0, 0, 0, 5, 0, 0, 0]"] ;
1000 -> 1002 ;
1003 [label="residual sugar <= 1.475\ngini = 0.4822\nsamples = 30\nvalue = [1, 1, 8, 20, 0, 0, 0]"] ;
995 -> 1003 ;
1004 [label="residual sugar <= 1.25\ngini = 0.5714\nsamples = 7\nvalue = [0, 1, 4, 2, 0, 0, 0]"] ;
1003 -> 1004 ;
1005 [label="chlorides <= 0.0345\ngini = 0.625\nsamples = 4\nvalue = [0, 1, 1, 2, 0, 0, 0]"] ;
1004 -> 1005 ;
1006 [label="gini = 0.0\nsamples = 2\nvalue = [0, 0, 0, 2, 0, 0, 0]"] ;
1005 -> 1006 ;
1007 [label="alcohol <= 11.1\ngini = 0.5\nsamples = 2\nvalue = [0, 1, 1, 0, 0, 0, 0]"] ;
1005 -> 1007 ;
1008 [label="gini = 0.0\nsamples = 1\nvalue = [0, 0, 1, 0, 0, 0, 0]"] ;
1007 -> 1008 ;
1009 [label="gini = 0.0\nsamples = 1\nvalue = [0, 1, 0, 0, 0, 0, 0]"] ;
1007 -> 1009 ;
1010 [label="gini = 0.0\nsamples = 3\nvalue = [0, 0, 3, 0, 0, 0, 0]"] ;
1004 -> 1010 ;
1011 [label="free sulfur dioxide <= 4.5\ngini = 0.3554\nsamples = 23\nvalue = [1, 0, 4, 18, 0, 0, 0]"] ;
1003 -> 1011 ;
1012 [label="gini = 0.0\nsamples = 2\nvalue = [0, 0, 2, 0, 0, 0, 0]"] ;
1011 -> 1012 ;
1013 [label="citric acid <= 0.43\ngini = 0.254\nsamples = 21\nvalue = [1, 0, 2, 18, 0, 0, 0]"] ;
1011 -> 1013 ;
1014 [label="density <= 0.9925\ngini = 0.18\nsamples = 20\nvalue = [0, 0, 2, 18, 0, 0, 0]"] ;
1013 -> 1014 ;
1015 [label="gini = 0.0\nsamples = 15\nvalue = [0, 0, 0, 15, 0, 0, 0]"] ;
1014 -> 1015 ;
1016 [label="total sulfur dioxide <= 128.5\ngini = 0.48\nsamples = 5\nvalue = [0, 0, 2, 3, 0, 0, 0]"] ;
1014 -> 1016 ;
1017 [label="gini = 0.0\nsamples = 2\nvalue = [0, 0, 2, 0, 0, 0, 0]"] ;
1016 -> 1017 ;
1018 [label="gini = 0.0\nsamples = 3\nvalue = [0, 0, 0, 3, 0, 0, 0]"] ;
1016 -> 1018 ;
1019 [label="gini = 0.0\nsamples = 1\nvalue = [1, 0, 0, 0, 0, 0, 0]"] ;
1013 -> 1019 ;
1020 [label="gini = 0.0\nsamples = 2\nvalue = [0, 2, 0, 0, 0, 0, 0]"] ;
994 -> 1020 ;
1021 [label="sulphates <= 0.435\ngini = 0.7136\nsamples = 25\nvalue = [0, 2, 10, 7, 5, 1, 0]"] ;
993 -> 1021 ;
1022 [label="volatile acidity <= 0.325\ngini = 0.6111\nsamples = 12\nvalue = [0, 0, 2, 6, 4, 0, 0]"] ;
1021 -> 1022 ;
1023 [label="citric acid <= 0.375\ngini = 0.4062\nsamples = 8\nvalue = [0, 0, 1, 6, 1, 0, 0]"] ;
1022 -> 1023 ;
1024 [label="total sulfur dioxide <= 76.0\ngini = 0.2449\nsamples = 7\nvalue = [0, 0, 1, 6, 0, 0, 0]"] ;
1023 -> 1024 ;
1025 [label="gini = 0.0\nsamples = 5\nvalue = [0, 0, 0, 5, 0, 0, 0]"] ;
1024 -> 1025 ;
1026 [label="free sulfur dioxide <= 8.0\ngini = 0.5\nsamples = 2\nvalue = [0, 0, 1, 1, 0, 0, 0]"] ;
1024 -> 1026 ;
1027 [label="gini = 0.0\nsamples = 1\nvalue = [0, 0, 1, 0, 0, 0, 0]"] ;
1026 -> 1027 ;
